svm_type c_svc
kernel_type rbf
gamma 0.00195312
nr_class 11
total_sv 966
rho 0.16297 -0.180252 -0.295798 -0.0987288 0.0165729 -0.251616 -0.282549 -0.0989825 -0.147011 -0.917729 -0.298716 -0.357819 -0.203042 -0.16099 -0.368469 -0.358327 -0.200625 -0.258291 -0.913913 -0.0638225 0.0349047 0.195995 -0.0567759 -0.118744 0.0888338 0.102237 -0.913881 0.225017 0.321556 0.0861982 -0.0048955 0.25508 0.228605 -0.884282 0.10582 -0.156037 -0.133227 0.0443553 -0.0129434 -0.899273 -0.28156 -0.289237 -0.10654 -0.157773 -0.921348 -0.0181138 0.170936 0.0703737 -0.849011 0.140809 0.186561 -0.847309 -0.0508938 -0.946853 -0.957276
label 0 1 2 3 4 5 6 7 8 9 10
nr_sv 98 97 99 99 95 96 89 92 98 100 3
SV
0.9808582208613026 5.143240199012007 3.166447338711709 1.182046581243863 2.548754345872529 1.017006521270102 1.775118670866661 1.914660116662408 4.499770560269419 0.3329548249012707 1:203.79939 2:43.341626 3:1.85547 4:8.5268655 5:-1.7403253 6:0.25256001 7:-0.87266038 8:1.1354208 9:0.15660617 10:1.6562198 11:0.1413923 12:-0.45059234 13:-2.6511401 14:262.5956 15:65.395327 16:28.013567 17:34.32344 18:16.337287 19:18.31187 20:14.441798 21:14.628024 22:14.88021 23:19.615208 24:12.762377 25:15.057776 26:13.182626 
0.248095658029867 2.328421511001217 0.6226006819676543 0.6860502519345975 0.5982575520463713 0.3178994924145986 1.182690527985945 2.628221837185441 2.189358871027851 0.6837136134094336 1:160.29403 2:52.234982 3:11.539146 4:8.2404317 5:1.0443811 6:3.7650441 7:1.0948357 8:0.49139194 9:-0.9093156 10:0.0041393642 11:-0.44332372 12:-0.30821429 13:-1.9338067 14:245.08094 15:90.082925 16:41.092172 17:34.700305 18:22.764963 19:24.466027 20:21.970792 21:16.431382 22:14.52607 23:17.024465 24:16.301711 25:12.16489 26:9.8456453 
1.115258758910513 2.030632413964401 3.061460526955278 1.147871964932491 1.453805355242608 0.7451634214567446 1.981748631363717 1.137974861554187 2.432927673638646 0.05737574127657255 1:217.84339 2:49.821815 3:-3.7218673 4:4.693662 5:3.2124306 6:2.2845384 7:-2.0508823 8:0.84827645 9:-2.3111365 10:-0.33266091 11:-0.58706608 12:-1.5511627 13:-0.64259421 14:271.42452 15:92.612216 16:36.913726 17:28.010694 18:21.71769 19:20.185151 20:13.808759 21:13.730827 22:11.402643 23:11.982499 24:16.973035 25:12.885516 26:12.183076 
0.6693601294864415 1.103271109388704 0.3514929970392535 0.5238517474842282 1.002319677635476 0.3789758279705395 0.4609694610730231 0.8197847340813379 0.8376235137838881 0 1:163.50199 2:66.090433 3:8.4993481 4:8.0379643 5:3.6710692 6:4.3004477 7:3.4346491 8:4.7611146 9:0.79201385 10:2.041763 11:0.68585225 12:0.91373954 13:1.6080978 14:257.1635 15:112.10006 16:34.158685 17:28.408149 18:22.456938 19:21.791574 20:16.041846 21:17.470685 22:15.40503 23:17.291779 24:20.860998 25:16.468043 26:16.300167 
1.374180823668219 0.963402822585347 1.155628998062955 0.8430423165815383 1.707172298396042 0.6070988116744415 1.030648008515276 0.9216685064602524 1.146640716581157 0.07608675846572791 1:184.70778 2:39.776907 3:-7.7439446 4:-8.1563987 5:-6.2880409 6:-3.111299 7:-4.5421857 8:0.35569507 9:-4.6859375 10:-2.8751104 11:-2.5096926 12:-3.0536097 13:-2.1783039 14:258.90028 15:83.887872 16:28.466797 17:14.850284 18:14.264838 19:19.391089 20:12.274438 21:20.248143 22:17.446857 23:11.792054 24:14.531031 25:20.841133 26:17.659854 
0.6860308440463565 0.6931446080640185 0.609048834141753 0.6333552679919114 0.6530080022693991 0.3324250733632682 0.5203694432997619 0.7446176970381415 0.8657681782236502 0.02311440851995569 1:178.09369 2:45.097717 3:0.49301109 4:-3.3979969 5:-5.614572 6:-4.7852596 7:-4.0772368 8:-1.6449994 9:-6.7588179 10:-2.3594499 11:-4.6620037 12:-2.2916029 13:-1.040964 14:267.17604 15:99.158784 16:44.403904 17:41.503318 18:18.094912 19:13.824793 20:13.193653 21:15.278224 22:12.108648 23:11.897337 24:14.927022 25:11.558905 26:8.9988186 
0.7144201953139464 0.5663435372521001 0.3805805019565258 0.4706280608662209 0.5971513855676994 0.4255878780585426 0.4134560030530165 0.4095930504574036 0.487689484526364 0.04742609851973816 1:176.03759 2:53.093422 3:-7.9335179 4:13.086961 5:-5.2161183 6:-8.7702712 7:-2.9383568 8:-2.4086439 9:-5.7639847 10:-3.8055269 11:-6.2368458 12:-4.9535375 13:-3.1260758 14:278.97697 15:97.258083 16:46.58675 17:38.854344 18:16.206014 19:20.713683 20:17.079255 21:16.619652 22:13.500193 23:14.488668 24:15.711194 25:9.5202223 26:14.523466 
0.1782950506441456 0.03299213218199817 0.1620795510135316 0.335889961266593 0.1132613147897288 0.1022782241734157 0.1712029954935803 0.4711055015002967 0.398970155062503 0.006617188850090135 1:180.81945 2:52.839479 3:1.2206445 4:13.284169 5:-1.3940287 6:-6.2167983 7:-1.6634948 8:-3.3127844 9:-4.1142434 10:-3.0792902 11:-3.2072929 12:-4.8187546 13:-4.4733144 14:276.81906 15:99.463174 16:53.173283 17:40.700335 18:22.381342 19:20.581327 20:16.486001 21:16.216842 22:12.473352 23:13.737213 24:16.324178 25:9.758142 26:9.9438783 
0.3039886085823441 2.794973921967504 1.655899457730644 1.125458971058798 0.4938205794693902 1.140443151399603 1.214805848151302 1.401809525522639 1.666658261488991 0.1576159422566083 1:200.91825 2:44.676476 3:7.0076428 4:11.669986 5:0.12229547 6:2.5108195 7:3.7316583 8:4.5568312 9:1.29701 10:-1.7474511 11:-2.7366513 12:2.4988856 13:0.38639809 14:252.69682 15:66.603808 16:43.769791 17:34.529547 18:15.36761 19:25.994662 20:24.241097 21:19.729318 22:14.644029 23:12.331779 24:16.300089 25:12.37838 26:9.7981654 
1.147921480456473 1.265997187745314 1.10048154588929 0.7418080197447566 1.638695269415234 0.9162493066088525 1.184330755966252 1.285917824306316 1.545673676816464 0.1368019180339167 1:160.24564 2:43.002242 3:5.6809137 4:-1.8149211 5:-8.5731747 6:1.2462901 7:-3.9779754 8:-1.0465112 9:-1.8280191 10:1.120476 11:-1.1697811 12:-2.6689191 13:-0.21324049 14:242.16145 15:78.120429 16:46.895411 17:22.290426 18:16.867218 19:16.49952 20:18.123958 21:24.155551 22:15.315831 23:20.161639 24:12.630293 25:13.078208 26:15.191185 
0.7503890388576708 0.6608546340590733 0.5122624601439297 0.7529243115674898 0.8059760953888325 0.4736920349337993 0.4965400033293839 0.6407332839296109 0.657206554328872 0.05241942227033349 1:179.31461 2:53.134781 3:-7.989418 4:-4.8067994 5:-7.1861762 6:-1.5260126 7:0.73719425 8:-0.51406828 9:-2.322909 10:0.69630277 11:-1.4550499 12:-0.1205988 13:-1.1695776 14:265.15438 15:109.93875 16:48.372485 17:26.72282 18:15.779115 19:15.06328 20:18.753037 21:17.684227 22:14.098889 23:16.137215 24:19.870983 25:12.151382 26:18.943947 
0.3975645682192618 0.849122138697798 0.2351640343300454 0.3329659846038492 0.9050023652519281 0.5096469460534371 0.2538273604017991 0.8344369901858775 0.6006763489844847 0.04788294338679662 1:119.87077 2:56.119995 3:14.415506 4:9.3817224 5:4.3064142 6:2.5544006 7:0.76713552 8:2.1455818 9:-2.1780504 10:-2.0024289 11:-1.6339044 12:-0.40235663 13:1.1109754 14:219.50974 15:91.370741 16:48.922735 17:35.353878 18:24.096476 19:22.666274 20:19.930907 21:22.136972 22:12.76749 23:17.113418 24:11.600584 25:10.428632 26:13.987653 
0.2850855054743205 1.4046243733516 0.5689669705560922 0.5575548541700444 0.8558006293586505 0.1530189290101089 0.6157129764485492 1.089249237298795 0.9151400719259586 0 1:169.18558 2:47.873172 3:7.788382 4:13.803914 5:-6.4883182 6:2.8266295 7:-9.8404011 8:-2.5722629 9:0.68377618 10:-4.0876797 11:-4.5429253 12:-3.5903841 13:-3.0057068 14:249.2781 15:95.740935 16:47.226329 17:41.83553 18:16.249724 19:27.02557 20:10.78575 21:22.256202 22:24.824585 23:14.977574 24:14.091858 25:11.10772 26:12.941454 
0 0.3805895918233385 0.07550746657539686 0 0.2999144909642971 0 0.4582924578191166 0 0.224658917281998 0 1:160.43177 2:53.225556 3:12.908421 4:11.379697 5:-5.2553767 6:1.6105893 7:-7.9106152 8:-3.9120917 9:2.277104 10:-2.5027477 11:-1.8424146 12:-0.18340415 13:-2.3205098 14:237.07731 15:83.023148 16:41.981892 17:37.62396 18:21.645658 19:21.996876 20:10.111055 21:18.544849 22:25.164123 23:19.125545 24:22.16902 25:25.858403 26:25.29291 
0.6990461183138327 0.5763427284751632 0.4074335007155986 0.5027153187119296 0.6613491920399202 0.5136766281390789 0.4124979546756769 0.8315186089286759 0.5423606065227082 0.02078058241740519 1:117.2647 2:51.199697 3:12.057436 4:13.527783 5:-1.5891081 6:0.19655017 7:-6.2958881 8:1.9938484 9:7.2374658 10:-0.16106038 11:-0.26053648 12:-0.56194131 13:-2.1321171 14:237.55269 15:85.34558 16:49.030278 17:45.70021 18:20.825309 19:21.973165 20:11.682274 21:20.238818 22:23.627015 23:16.039853 24:17.325063 25:17.900483 26:24.038113 
0 0 0.09527816293826201 0.04650987560491331 0 0 0 0 0 0 1:148.30651 2:48.154907 3:5.8340029 4:10.063435 5:-3.1353984 6:4.4371669 7:-8.1019451 8:-2.8887275 9:3.8292807 10:-3.5225965 11:-4.01427 12:-2.4131211 13:-1.91754 14:240.17472 15:84.674613 16:42.991439 17:43.780732 18:15.973857 19:29.130504 20:14.936342 21:18.166629 22:23.726848 23:18.924174 24:15.933325 25:23.473494 26:18.263268 
0.1240482071673222 0.2492767042704375 0.2372348822592172 0.5917547760140168 0.1797915265366996 0.03719590919805219 0.01675585026595242 1.83732530484747 0.03379957885298588 0.9099591595363974 1:149.56241 2:48.568329 3:5.8011851 4:8.6737087 5:-1.6693566 6:2.4256792 7:-6.1210027 8:1.6572301 9:4.8741565 10:-2.7781042 11:-3.9764383 12:-0.15870948 13:-1.0433449 14:236.54572 15:89.005502 16:41.412984 17:43.018143 18:24.519041 19:26.843466 20:10.702049 21:21.598943 22:21.085794 23:18.440415 24:14.692647 25:17.359541 26:17.907249 
0.06466366600620659 0 0.005277277358157989 0.3558649367606964 0 0.1107316249143009 0 0.06541100081118532 0 0.1288834735513301 1:150.74811 2:57.725327 3:9.920327 4:19.630129 5:-5.117786 6:0.15845689 7:-6.6722333 8:-2.7024703 9:5.2163541 10:-2.4816889 11:-3.2311771 12:-1.8688021 13:-3.1444164 14:239.71087 15:90.93977 16:56.340346 17:45.119296 18:21.608519 19:23.123856 20:11.291748 21:13.777864 22:25.310543 23:15.15948 24:16.466881 25:20.736868 26:11.281427 
0.7777155779318897 0.3213679681041797 0.388959696609946 0.465435888718857 1.113388279535139 0.5539986694050975 0.3067070012497509 0.4435244188943741 0.6099528942170538 0.01900116645899718 1:140.50666 2:47.05386 3:14.251012 4:9.9931639 5:-2.8098998 6:0.40525901 7:-8.3082491 8:-1.5281137 9:4.2208937 10:1.2798538 11:1.0386772 12:2.9059555 13:0.99451124 14:236.60013 15:79.009893 16:41.158404 17:35.970953 18:19.439523 19:22.297416 20:11.175971 21:14.819105 22:21.720773 23:23.737018 24:20.330212 25:27.722156 26:28.521609 
0 0.5137201307449134 0 0.09115803485981314 0.3326543960812245 0 0 0 0 0 1:151.79653 2:56.022704 3:6.7151502 4:10.685276 5:-6.9647818 6:0.32131769 7:-8.7540747 8:0.061065002 9:2.5093643 10:-1.7349308 11:-3.3754313 12:-1.8446007 13:-2.9422352 14:240.75727 15:94.631673 16:39.78112 17:46.809186 18:14.662285 19:22.902822 20:12.401896 21:20.329777 22:23.748249 23:17.515763 24:10.131198 25:18.033157 26:17.64665 
0.4248488219765571 0.6585422757403406 0.1830976366855954 0.5081919934661956 0.7902123420185043 0.2676164985076748 0.3112948270785286 0.4699983811371477 0.3533332516116084 0 1:147.44503 2:53.249448 3:10.26454 4:7.3005637 5:-3.7040568 6:0.98609934 7:-4.8329541 8:-0.34123289 9:2.1452277 10:-2.5107714 11:-3.4067125 12:-0.91721408 13:-2.5150648 14:240.39898 15:82.925156 16:40.179933 17:36.166042 18:15.195378 19:31.743821 20:19.031751 21:27.709034 22:19.146734 23:19.405573 24:16.207589 25:18.00144 26:18.094445 
0.2470954309579379 0.01864289892143813 0.06950225820952187 0.06333427950254167 0.06194316307551997 0.09824326597657249 0.08534620692753613 0.07738875413788426 0.05850222597639761 0 1:140.44019 2:60.991489 3:12.941167 4:14.864809 5:-0.053056137 6:3.3393905 7:-8.4371184 8:1.129554 9:6.572488 10:-1.9797678 11:-1.1735497 12:0.40262374 13:0.0022461347 14:247.12109 15:95.271816 16:46.585123 17:39.429078 18:20.885743 19:30.257253 20:9.0457629 21:27.609385 22:22.824367 23:17.026608 24:20.659591 25:18.534854 26:25.498539 
0.5002275402432674 0.3553605004062303 0.2586641395991615 0.5235464459475707 0.5687056334414688 0.3185534830784287 0.3147461547105737 0.3547395650005034 0.3036828615266366 0 1:155.32719 2:56.38444 3:9.5680868 4:12.256655 5:-4.6295416 6:4.7198437 7:-6.9843451 8:2.1611638 9:6.770383 10:-2.3432872 11:-1.1427793 12:-0.35863812 13:0.4732463 14:258.76124 15:98.419988 16:44.146985 17:43.65484 18:21.391719 19:24.306485 20:9.7512725 21:26.304265 22:29.003658 23:23.362069 24:23.967842 25:18.249351 26:23.600101 
0.1768417694545155 0.3210598942101683 0.4344956343633364 0 0.3015077569751024 0.03162616230552935 0.1443511362056315 0.01854780301670294 0.4412143661209998 0.02271470690498995 1:161.73804 2:53.067213 3:9.4962589 4:14.116669 5:-5.436764 6:-1.5171516 7:-7.2055738 8:-4.9170965 9:-1.3597636 10:-2.2018442 11:-2.3995166 12:3.3013225 13:1.7713174 14:251.9228 15:86.979094 16:49.502544 17:41.184418 18:16.474919 19:15.189367 20:11.015396 21:12.062212 22:18.497709 23:14.864018 24:13.360716 25:20.542174 26:19.097764 
0.4911422575343229 0.136383793851598 0.2922499354043579 0.4661970272804226 0.3423918844973809 0.3047916034723683 0.2529199147821854 0.69854823369146 0.7758587352959683 0.01057356218087284 1:140.82863 2:53.910647 3:15.500856 4:18.823627 5:-4.9745848 6:-0.22588206 7:-5.0701007 8:-1.4004709 9:-0.6417768 10:0.096687718 11:-3.8218285 12:-2.1659891 13:-1.274096 14:254.92797 15:88.681472 16:57.679121 17:41.667387 18:17.939066 19:21.489877 20:16.111638 21:17.733848 22:19.082792 23:24.869646 24:11.906512 25:10.526673 26:16.154899 
0.6566946363772722 0.3679733604086723 0.4132541083206406 0.8256305368437002 0.5699929493587598 0.4332482015568221 0.3923402392556052 0.5821887167286989 0.4700311243993999 0.05047387406862575 1:147.7825 2:53.622127 3:14.715216 4:20.293256 5:-5.6970813 6:-0.46890229 7:-2.9905333 8:0.1315471 9:-1.1753154 10:1.1076648 11:-1.3678729 12:2.4435564 13:-0.66295578 14:231.25245 15:93.079917 16:55.408238 17:51.148305 18:16.929824 19:16.982359 20:16.172011 21:26.214634 22:32.649808 23:27.82036 24:22.120213 25:22.025638 26:19.721851 
0.4207569837471736 0.3175242142764855 0.2683478854231468 0.4563035575143429 0.4347962413871619 0.343285895524495 0.287359960647802 0.7519107506838459 0.4173472892951275 0.004113815861983031 1:129.82908 2:50.121067 3:13.77542 4:17.267132 5:-3.0026522 6:1.2559237 7:-1.985381 8:-0.024998271 9:1.6189023 10:0.34973435 11:0.41681106 12:1.8498727 13:2.5181186 14:237.87377 15:90.235174 16:46.249543 17:48.414629 18:24.166658 19:23.978101 20:19.741212 21:17.999595 22:22.085194 23:28.113942 24:26.819473 25:28.104164 26:23.503667 
0.7146487291520197 1.828463878152141 0.9342659592202146 0.7923388259358446 1.28928239995359 0.657236107578305 0.7067565552486061 0.6938482613321711 0.8995271210418387 0.3888183138794333 1:168.7206 2:46.32963 3:8.3673114 4:16.890304 5:-8.1876023 6:-0.26127057 7:-3.4510605 8:-3.8730771 9:-1.9227253 10:0.89505637 11:2.8414119 12:-0.40307242 13:0.05753559 14:233.28196 15:80.363532 16:41.120467 17:46.239675 18:11.630539 19:19.929725 20:15.729541 21:10.925597 22:17.952298 23:15.7978 24:21.356937 25:18.960973 26:23.695414 
0.562984515873859 0.2976522257195257 0 0.03088082918103154 0.3477411397114535 0.1769571178416486 0 0 0.1169360871219843 0.09912108074858891 1:151.43606 2:56.777704 3:6.0053126 4:20.031455 5:-3.1262484 6:-0.18377623 7:-6.9554896 8:-3.1294644 9:-2.5418739 10:-0.51337749 11:-3.5249815 12:-2.8863777 13:-1.7117287 14:250.34028 15:87.075177 16:40.301232 17:47.370106 18:17.874374 19:18.664375 20:13.184113 21:15.869088 22:15.841575 23:16.609862 24:15.309224 25:14.128175 26:12.123184 
0 0 0.03314646790287945 0.1277629269952425 0 0 0 0.5380755454963598 0 0 1:159.12335 2:54.032524 3:19.26951 4:7.6882974 5:2.8294179 6:1.6001053 7:-4.427013 8:-1.1974817 9:-4.0233276 10:0.5060878 11:-0.17648005 12:2.044708 13:-5.5306554 14:236.60204 15:96.116032 16:57.559196 17:35.890322 18:31.221268 19:25.325586 20:12.95242 21:19.9088 22:15.947776 23:20.345804 24:18.212986 25:20.323384 26:15.75712 
0 0.3256294802202802 0 0.00445946677639098 0 0 0.1608115176988153 0 0.1061397652934694 0 1:175.19725 2:62.42631 3:21.238916 4:6.7830551 5:-0.20161599 6:3.0497026 7:-2.5865673 8:-1.9733964 9:-4.3065354 10:-1.4009597 11:-4.4343372 12:-0.027271459 13:-3.5380218 14:241.74659 15:93.17598 16:55.701481 17:31.540381 18:20.578861 19:26.597549 20:12.741327 21:12.56726 22:12.369696 23:15.532184 24:16.029802 25:13.787083 26:9.2735813 
0.6274122875492384 0.6792018949799976 0.455323032287212 0.617946632310382 0.5769846136480006 0.4635179823768962 0.4787235625699272 0.5539109919945191 0.5916687083557088 0.2039216919844286 1:169.30106 2:59.055554 3:19.515232 4:9.1533162 5:1.6347616 6:-2.0715509 7:-5.8067504 8:-4.8163264 9:-5.7704016 10:-0.89794073 11:-0.44505152 12:2.3412173 13:-4.3434348 14:224.61115 15:85.02367 16:51.840208 17:43.736155 18:23.221309 19:16.874581 20:16.118619 21:24.845732 22:11.711285 23:25.255922 24:18.030605 25:22.038099 26:22.314035 
0.3761815956797975 0.0974677623093199 0.1367099715890439 0.2662015551163323 0.4172747757238797 0.1960478571193546 0.1051434291527209 0.8926543343792858 0.2507035868915093 0.01717917785714033 1:134.61416 2:59.021216 3:19.26054 4:10.327057 5:7.7398294 6:3.6844425 7:-0.33912884 8:1.1662396 9:-3.7296689 10:-1.9365708 11:-2.9467874 12:-0.58791485 13:-5.0394907 14:238.39948 15:93.609395 16:52.932237 17:34.520141 18:28.329414 19:20.787953 20:14.136711 21:18.727666 22:13.423432 23:13.521932 24:18.716025 25:18.548739 26:7.9014277 
0.5652519045871661 0.4228447701430901 0.276677936352582 0.8657016286776695 0.4475981271877861 0.3685005005772609 0.2549728363601616 0.3021141729877584 0.347913129072167 0 1:160.50121 2:61.340736 3:27.094675 4:5.5390232 5:1.3617849 6:1.6870757 7:-3.7408617 8:-2.1718953 9:-6.4974233 10:-2.2685515 11:-1.8359797 12:1.927742 13:-4.9219122 14:237.55067 15:106.82482 16:59.214536 17:31.998548 18:23.231017 19:18.784872 20:16.490426 21:21.609059 22:11.041162 23:12.959555 24:11.843524 25:16.158768 26:16.636064 
0.2364169755987015 0.2270521234512821 0.5838574148187634 0.07756722199379155 0.294216290639671 0.1596668047911461 0.429742516665491 0.2219152499031134 0.5839088837001388 0 1:168.45933 2:54.925399 3:18.600106 4:4.9926048 5:4.9828165 6:1.8671792 7:-5.5476663 8:-3.7519538 9:-3.9917298 10:-1.8104998 11:-2.6862344 12:1.8609428 13:-2.48275 14:238.61465 15:93.260348 16:52.716333 17:34.08731 18:28.915577 19:24.402071 20:10.186492 21:17.011564 22:13.177675 23:13.408715 24:26.397825 25:22.082585 26:21.562111 
0.7078932320407034 1.163035298694614 0.8487752676592311 0.5876510297376266 0.8096214203627542 0.4256087186791439 1.241267169063456 1.023702591187552 1.246539210765659 0.04466696803720022 1:189.61381 2:59.8604 3:13.317571 4:2.5901703 5:2.0340857 6:1.4497658 7:-1.6158031 8:-1.0789965 9:-5.2782047 10:-1.7490883 11:-2.8586186 12:-1.7972708 13:-4.2867687 14:242.48276 15:91.987197 16:43.391617 17:25.302398 18:25.968662 19:15.510541 20:22.911638 21:16.157204 22:14.867847 23:11.019341 24:10.666945 25:11.577979 26:8.6156976 
0.4045261114008013 0.6689030949633743 0.1974300635916864 0.2764675323244364 0.6836731253250334 0.2510752711291059 0.40065107374202 0.2458062963261523 0.334756147330631 0 1:179.26397 2:60.95533 3:16.611686 4:3.5197633 5:0.28413187 6:-2.5164647 7:-5.7936523 8:-7.6595041 9:-6.9528339 10:-2.8842474 11:-3.3348461 12:0.25836509 13:-7.2768025 14:237.34936 15:102.27906 16:48.632111 17:30.064647 18:22.015537 19:17.680289 20:10.786762 21:15.657371 22:14.486534 23:15.818768 24:20.879454 25:23.538086 26:11.510193 
0.8151686460754519 0.5305959852725197 0.4891597762102894 0.6218021379145287 0.7217378977754675 0.5315897004607041 0.5002489378568128 0.7825226021051732 0.6369574908247272 0.05563214729234607 1:119.63709 2:53.561839 3:15.313766 4:8.3789986 5:6.94135 6:1.7679382 7:-2.3784714 8:-2.4846344 9:-4.2568425 10:-2.4961611 11:-1.271823 12:0.32008294 13:-1.7801215 14:233.42941 15:103.2057 16:52.872757 17:34.892378 18:40.362082 19:26.974622 20:22.594821 21:17.965589 22:20.424523 23:22.828788 24:15.2455 25:20.911341 26:29.196712 
0.3464637855616942 0.5433539236162883 0.3174379625996162 0.2299325227489101 0.3636613743893388 0.2126260396233031 0.2924503219243087 0.5673206146336157 0.9760559184643285 0 1:179.74464 2:58.054406 3:18.05973 4:6.7543423 5:1.3987967 6:-1.3351309 7:-3.1547037 8:0.21224345 9:-8.386327 10:-5.2130278 11:-3.5756976 12:-0.63479238 13:-4.9481044 14:242.87278 15:94.749891 16:54.319157 17:30.598067 18:19.858266 19:25.18854 20:15.330266 21:12.953621 22:6.8155704 23:11.438799 24:12.783763 25:11.564036 26:7.2120253 
0.5397633526899186 0.5350673752046684 0.3120699393358358 0.3784188758910359 0.5716880066823024 0.3258744880102422 0.3379582757901085 0.2536862801663372 0.4581877013623712 0.02515249852586344 1:128.36885 2:66.203353 3:16.981728 4:6.2667192 5:5.3050186 6:0.43053458 7:-4.4902432 8:-4.4694321 9:-5.6631435 10:-0.70355646 11:-2.9059875 12:0.55550063 13:-2.7862617 14:224.8098 15:100.83831 16:59.925888 17:34.519202 18:26.953696 19:21.309468 20:10.662271 21:13.606226 22:8.243606 23:17.010012 24:19.549591 25:23.144228 26:17.012953 
0.08582177978343722 0.3140224830087027 0.5328510654896377 0.186941929949434 0.3102915150990325 1.025112299499337 0.2054358365648355 0 0.9121992350651142 0.1341258880979678 1:205.1229 2:31.745195 3:21.784602 4:12.978913 5:2.9444445 6:2.4649547 7:-3.4550602 8:-0.76762898 9:-2.4306543 10:-2.9600497 11:1.7361392 12:-1.6982666 13:-2.8057245 14:248.07185 15:57.978047 16:42.85428 17:30.587661 18:18.716318 19:27.573775 20:9.1902851 21:16.329785 22:15.126434 23:7.7104841 24:17.872226 25:10.846825 26:10.801228 
0.3604901092871787 0 0.385654112468803 1.077038585721597 0.1374829337937499 0.7070426331541824 0 0.04236395636984749 0 0 1:206.38996 2:32.426584 3:15.731885 4:11.022569 5:4.690884 6:7.0502758 7:0.11589152 8:-1.8888665 9:-1.3218974 10:0.078196963 11:3.8971764 12:-3.3732 13:-1.4035209 14:251.98892 15:53.154946 16:44.372073 17:35.689393 18:18.403754 19:34.857381 20:20.052672 21:16.720087 22:17.944795 23:16.66865 24:18.195418 25:12.583106 26:13.981639 
0.998638815546199 0.7265790584284366 0.6933338832673683 0.954556651248721 0.9380910552815636 0.7093312009778734 0.6246027716014281 0.9920112553554303 0.8042746956852588 0.06248581752484358 1:186.75984 2:24.064676 3:22.223946 4:23.804088 5:10.810408 6:4.5918363 7:1.8221276 8:-1.4333301 9:-5.9913101 10:0.67320882 11:7.3644841 12:-1.7266906 13:-0.47819967 14:244.33229 15:58.272148 16:61.347655 17:43.354888 18:25.481362 19:25.22259 20:18.641056 21:15.776199 22:8.4233606 23:18.14477 24:30.023708 25:19.394662 26:21.745088 
0.7292381145212868 2.326576860547074 1.887048730271658 0.8879184455896584 0.3615491477333451 1.136502441948767 1.121303665346076 1.313091950019676 1.593742843689268 0.02002309798208829 1:202.57752 2:36.679033 3:12.629833 4:11.640771 5:6.7970094 6:6.1925183 7:-0.59684905 8:-1.8688625 9:-5.2001931 10:-2.3675993 11:1.9556352 12:-0.22751685 13:-2.0021608 14:259.67291 15:60.364299 16:35.688881 17:30.164874 18:24.914603 19:30.159367 20:15.971897 21:18.637481 22:9.2526448 23:12.14161 24:16.215133 25:13.523555 26:10.575299 
0.4054443499566469 0.5239810067591258 0.3912281134603889 0.9317687979730712 0.7310198852487962 0.4671621100581539 0.1122674571519463 0.2715525484348222 0.2878357480328137 0.007407606749082526 1:204.9701 2:29.532468 3:18.098742 4:15.346872 5:8.177397 6:4.4430966 7:0.35623869 8:-1.5032275 9:-4.1032534 10:1.4125984 11:5.7840522 12:-0.54395486 13:-0.12520359 14:243.3765 15:52.436239 16:38.741183 17:31.540904 18:24.272617 19:28.004851 20:22.238684 21:18.021656 22:12.337976 23:20.312405 24:22.634518 25:24.350218 26:19.486844 
0.9486830685060175 0.6087561721254982 0.5250179073957827 0.7809701588439506 0.8373021824766198 0.619001743934135 0.5549836015657035 0.7148654068407387 0.6466221919018316 0.05569320324980968 1:180.89208 2:37.601949 3:31.876348 4:23.224184 5:6.6957719 6:3.142374 7:0.42478266 8:-2.4008106 9:-5.1547686 10:-0.39171699 11:4.7770635 12:-2.4340681 13:-3.6078139 14:213.30644 15:61.047512 16:52.753461 17:39.969848 18:20.104453 19:15.429733 20:16.517499 21:13.486261 22:12.929805 23:17.316068 24:18.792374 25:11.991282 26:6.3114221 
0.5809149968270187 0.913176505440596 0.8270970050414583 0.5931670794954765 0.5747159232419775 0.807176575443347 0.5921995287341374 0.957561710513224 1.167425659984809 0.2969694985762641 1:169.87432 2:38.891184 3:27.852538 4:17.429931 5:6.0069754 6:1.7452366 7:-1.2269688 8:-3.4156314 9:-4.0621696 10:-0.25271761 11:2.5355317 12:-2.1615021 13:-1.6804868 14:234.11422 15:68.364888 16:50.361072 17:34.145572 18:20.674231 19:15.625794 20:12.928092 21:13.949228 22:13.828942 23:10.779104 24:17.936746 25:13.14387 26:9.2448776 
0.6439075141621052 0.6489819349529594 0.5730653721522844 0.5877373335872015 0.7067687614475596 0.2936708924097687 0.4325596482338178 0.496880194036429 0.8481569315030916 0.02272867586027312 1:187.31874 2:37.109307 3:26.905916 4:13.828652 5:2.8469113 6:0.95768211 7:-4.9201124 8:-5.8666119 9:-5.4372237 10:0.70202934 11:4.8672542 12:-2.6077994 13:2.3859558 14:239.18926 15:57.629928 16:45.559906 17:31.601215 18:16.799603 19:24.531948 20:9.3577407 21:8.0505162 22:11.896264 23:12.023604 24:17.41397 25:9.0502808 26:15.861991 
0.6497783723092165 0.9173433822709091 0.582754455168827 0.4798696132287233 0.4541726180659316 0.4934328246299234 0.16739990079045 1.020462588597922 0.7865307115493164 0.03449745345666715 1:208.29984 2:34.00684 3:11.103593 4:12.268454 5:2.8388502 6:4.1619881 7:-0.43955794 8:1.3015561 9:-2.629835 10:-0.95889993 11:1.2184931 12:-0.66758445 13:-1.6500209 14:255.01082 15:58.312139 16:36.724541 17:30.811631 18:17.976618 19:39.063029 20:16.622417 21:18.74481 22:15.313898 23:12.630657 24:17.073115 25:14.866348 26:10.932755 
0.8650562200870828 0.6595655387234548 0.606389785126909 0.7611424133600836 0.764158870604253 0.5858746299884193 0.5377451218603526 0.6755016818987195 0.7073439028416179 0.1367058882186362 1:141.7953 2:51.559247 3:32.365969 4:16.813622 5:9.1173033 6:0.080096248 7:-6.9688305 8:-2.5818245 9:-7.7702852 10:-3.4918232 11:1.6596005 12:-3.3667122 13:1.2276124 14:218.59054 15:90.906516 16:53.683055 17:40.133806 18:27.934756 19:16.923032 20:19.371804 21:17.126626 22:7.9440078 23:13.594432 24:20.08918 25:14.774879 26:13.466443 
0.4111995967932598 0 0.347936234229508 0.6635934329196888 0 1.282459026860916 1.121396503468802 0.5771834294662572 0.6728807196133636 0 1:217.27234 2:35.375858 3:7.1834733 4:16.371701 5:6.1015115 6:2.7615754 7:-1.4109994 8:0.58433932 9:-1.9311927 10:0.95752006 11:-2.2236165 12:-1.3906078 13:0.24849605 14:283.30866 15:60.405282 16:31.212105 17:40.970978 18:24.508867 19:18.957817 20:16.432148 21:20.397975 22:14.890559 23:18.446745 24:10.020715 25:10.821881 26:13.714968 
0.2722806305509908 2.141869856840037 1.673992995996673 0.5742906532774468 1.643017755512316 0.2369139347870673 1.016550915643954 0.2622502903552676 0.7236652340138388 0.006939121747173338 1:232.43033 2:33.575529 3:5.8457706 4:16.341978 5:-5.1798172 6:1.8458203 7:2.8496851 8:4.4546371 9:1.2432425 10:0.24918682 11:-3.5397696 12:0.64369614 13:2.8665938 14:270.47167 15:61.155686 16:35.137389 17:33.112333 18:12.416911 19:20.179857 20:18.798242 21:21.417457 22:17.45018 23:15.449852 24:16.459646 25:22.449971 26:19.211712 
0.9939439142184948 0.6281323754348802 0.6686043404140072 0.7795718585957363 0.7882799557719673 0.5673785323868132 0.6031437522819585 1.244841285273131 0.9699726749315217 0.1386365510886653 1:158.52546 2:45.213586 3:12.229512 4:22.826278 5:1.5901181 6:7.9965075 7:-1.5760082 8:1.7344272 9:-0.59567611 10:-1.1046562 11:-4.7197326 12:-2.1034451 13:2.1203698 14:271.51027 15:89.072832 16:52.356615 17:42.947285 18:30.493729 19:24.311784 20:16.475596 21:17.959826 22:13.347203 23:16.401326 24:11.34659 25:18.087364 26:21.694454 
0 0.2779613491795576 0.7936993168691586 0.2898133843193345 0 0 0.4424140924494793 0.03932702445652937 0 0 1:222.9105 2:26.929954 3:2.1084432 4:14.762301 5:-3.3966904 6:2.5510744 7:0.041892627 8:2.6912838 9:0.048033642 10:1.8936654 11:-1.8972392 12:-1.1305 13:1.9077111 14:277.70505 15:60.218884 16:29.618105 17:42.028527 18:18.422444 19:21.27544 20:20.985072 21:19.411659 22:17.915793 23:19.75339 24:16.066875 25:18.313783 26:20.599849 
0.2943452343355596 0.4639688360254957 0 0.416016987185208 0.08983983575372814 0.3853184849460782 0 0.3430161120884451 0.3193447619513449 0.01347763520656035 1:229.14346 2:32.066496 3:5.7077688 4:19.503183 5:1.7697802 6:0.30192769 7:1.7269951 8:3.8934296 9:1.0706522 10:1.2686355 11:-3.4647614 12:-1.6530988 13:-0.1720533 14:277.24719 15:61.464559 16:38.029598 17:39.162898 18:19.078588 19:22.474911 20:22.3565 21:26.995059 22:21.748622 23:21.447592 24:9.5039032 25:11.78357 26:12.320159 
0.8227702313709713 1.637415739736794 1.836390857368201 1.094142080004842 0.3775436225611498 0.9032576733906194 0.9801578431604955 1.916155536404214 1.487839284524944 0.003536876958172269 1:211.40924 2:29.78229 3:4.4598725 4:17.006158 5:-1.4258375 6:4.9055944 7:0.27246898 8:2.0242845 9:0.20405068 10:1.7843517 11:-2.7953389 12:-1.3721394 13:2.8960323 14:270.38101 15:70.410695 16:30.689163 17:40.601507 18:19.999733 19:27.402988 20:22.955493 21:19.531724 22:15.111173 23:23.169962 24:10.642906 25:11.488923 26:20.419257 
0.9875041484959327 1.08434776451484 1.598580964036243 1.858083454065496 0.8071330631480382 0.8443398686127546 1.490102635242986 2.109745747885248 1.715547225896516 0.03541902260756474 1:192.92722 2:40.26025 3:13.541327 4:16.8983 5:2.4431259 6:5.4115521 7:-0.68672358 8:2.3122459 9:-0.90407716 10:-0.49569964 11:-1.2644225 12:-0.57033215 13:1.6783979 14:277.72384 15:75.860482 16:41.727957 17:36.083096 18:27.919043 19:32.46251 20:24.033467 21:18.736775 22:9.4421487 23:19.495885 24:12.63566 25:14.25739 26:22.755009 
0 0 0.04418480732862676 0 0 0.2289085596084588 0.3516124767738721 0.1190859206175013 0 0 1:214.21702 2:36.632505 3:4.7511716 4:18.793002 5:3.1142239 6:1.2457444 7:2.3698255 8:1.135776 9:-0.61655954 10:1.068105 11:-2.7348949 12:0.079528797 13:0.53027436 14:284.41415 15:70.113021 16:40.085076 17:42.362308 18:22.730578 19:20.827977 20:23.896029 21:18.057946 22:15.087159 23:21.645836 24:16.060988 25:13.625466 26:17.846935 
0.3868762256645037 1.042762139928844 0.7949067682000565 1.036185591166845 0.5770532728684482 0.4781467941528089 1.603184463349451 0.7564776513615552 1.618515730821404 0 1:214.60116 2:33.758971 3:7.4120256 4:13.855417 5:-4.1681589 6:-0.077347839 7:-3.6320872 8:-1.0430259 9:2.3121854 10:1.5685372 11:-1.3425316 12:-1.8485131 13:-0.029414874 14:284.26077 15:67.834291 16:42.165973 17:34.524346 18:15.011906 19:20.237848 20:11.719596 21:14.015049 22:17.989811 23:22.326145 24:17.772033 25:16.704008 26:14.234317 
0.5576323197752451 0 0.9499498391899123 2.400838317850297 0 0.9980563476923799 1.460879160995536 0.5180678841111196 0.0526516942432312 0.009631725997844919 1:216.15105 2:26.149111 3:12.325016 4:17.452023 5:-2.986703 6:3.9692046 7:-0.69243664 8:3.1648132 9:-0.22772772 10:0.22936614 11:-3.4783204 12:-0.86254939 13:1.2546228 14:279.98325 15:62.910279 16:44.304449 17:42.814293 18:19.986794 19:24.588741 20:19.727574 21:19.510265 22:15.694586 23:22.240105 24:15.118046 25:14.147133 26:16.598775 
0.1890037546590084 1.409296554360853 0.1861009153977765 0.6513834679297336 0.5056149499569342 0.7992644597057582 0 0.02969127491353542 0.8002899689218752 0.0185020809855413 1:225.27641 2:33.725063 3:5.2546993 4:18.461489 5:3.6492586 6:2.4793204 7:0.19219997 8:1.4199034 9:0.012223631 10:1.6515197 11:-3.2620162 12:-0.77708556 13:1.1775694 14:273.08709 15:61.536254 16:26.993172 17:45.202897 18:24.801392 19:17.736658 20:22.290111 21:17.029929 22:14.522198 23:20.717431 24:7.3886085 25:13.555603 26:14.386804 
0.7555824429217559 1.183204090595171 1.657296951155861 1.311655873909263 1.241027498279516 2.134054757835556 1.16746061457655 0.5179689426357934 1.461566907723635 0.04627259739326881 1:224.05864 2:20.505948 3:16.679111 4:10.830226 5:-0.039473657 6:2.9816272 7:2.5411149 8:0.24253384 9:-1.7178573 10:-0.64576793 11:-0.34034452 12:0.34928911 13:-4.4202856 14:254.04059 15:54.886697 16:40.029686 17:30.375814 18:15.706877 19:19.142829 20:17.550367 21:15.036347 22:11.575066 23:14.429891 24:22.110794 25:18.862823 26:11.038311 
0.4242423611684963 1.809521362496553 2.060008220799571 1.760247969132412 1.358816375597901 1.319250799949692 0.7871411320741973 1.018625127680032 1.804526095962453 0.2968588304948104 1:197.36925 2:28.557802 3:8.9189288 4:3.1988025 5:2.6979806 6:2.7861489 7:3.6436835 8:-0.56114742 9:-2.3941 10:0.57457099 11:-4.6370807 12:2.0882478 13:1.1931215 14:242.0726 15:69.071921 16:35.493338 17:30.575588 18:20.958594 19:24.558625 20:22.68411 21:20.134919 22:14.156197 23:19.819296 24:11.071666 25:22.430953 26:21.919546 
0.1666148479276209 0.1720778382831784 0.4494671148001683 0.4730388847805853 0.1789197541353893 0.4363546442377638 0.02633312718682826 0.1195674745482154 0.2829051624923268 0 1:196.75805 2:23.24739 3:13.949219 4:-0.56578886 5:-3.0515715 6:-2.3666415 7:1.90877 8:2.3524185 9:-3.0154207 10:-2.694103 11:-3.078853 12:-0.94732012 13:0.53755885 14:246.60787 15:50.460351 16:43.998512 17:18.52437 18:17.363511 19:16.321445 20:17.280091 21:20.735553 22:12.417851 23:10.256944 24:10.596174 25:16.993449 26:22.347329 
0.591283687728724 0.84664494089051 0.6953247246308566 0.4374191159512221 0.729560215644285 1.089005401416004 0.7965879987288996 0.4873363895131883 0.9186886075190057 0.0394044046981246 1:216.85023 2:24.872188 3:14.350025 4:-0.089944971 5:-9.8811235 6:-1.9248262 7:-1.1507844 8:1.882381 9:-1.2141456 10:-2.3167302 11:-3.1942619 12:-0.97247983 13:0.69328625 14:253.76845 15:45.245132 16:34.13437 17:21.231989 18:5.7118621 19:16.194541 20:11.962173 21:18.249585 22:14.901319 23:8.9803916 24:9.8131831 25:14.32714 26:14.213932 
0.4765151610439219 0.2689460405648473 0.2278453326535551 0.4742887911292126 0.6179990276414427 0.4499663112583588 0.1277667519350145 0.2886029563461781 0.5091894271233941 0.02227103127908225 1:203.27696 2:20.688851 3:8.2250581 4:-0.82012976 5:-3.7868947 6:-2.4198869 7:0.97233238 8:0.011405286 9:-3.0880974 10:-3.0681528 11:-3.8916325 12:0.061464094 13:1.3817787 14:242.48415 15:47.630861 16:31.629983 17:17.785704 18:15.667652 19:16.390919 20:16.592607 21:20.768722 22:15.415357 23:12.457529 24:9.5950571 25:23.86966 26:23.612709 
0 0 0.3518331041457247 0.2352824606756498 0.426014695296333 0.3370120010231066 0 0 0 0 1:203.95097 2:30.453455 3:10.807 4:4.4200453 5:-0.33117956 6:0.66426023 7:1.5567105 8:1.0006851 9:-1.5163115 10:2.7577434 11:-0.12963611 12:2.8292263 13:0.10392873 14:250.63969 15:63.464347 16:37.649414 17:21.499463 18:12.903579 19:24.100416 20:21.383899 21:25.220871 22:16.334981 23:20.211508 24:17.876629 25:20.254153 26:21.367639 
0.6609316351893516 1.515211628275558 1.787189751050497 0.5325692711751564 0.6716463370096115 1.210303881594962 1.380038586078253 0.8289432754944508 1.644076632542988 0 1:215.30676 2:31.515608 3:7.6304899 4:0.32642049 5:-4.0446599 6:2.0555275 7:0.20002815 8:1.6151887 9:-1.3982103 10:-1.1738339 11:-2.4183683 12:0.63058827 13:3.8757302 14:254.23933 15:59.36778 16:33.244005 17:21.659956 18:14.384992 19:24.706847 20:22.127889 21:22.53498 22:15.40358 23:19.308782 24:14.400051 25:14.650314 26:21.120013 
0.08975483295930001 0 0.03815947959076036 0 0.273519957806249 0.1818962920564506 0 0 0.02609157237037713 0 1:203.18499 2:26.930207 3:12.3508 4:-2.0562964 5:-7.9656827 6:1.8954022 7:1.2976829 8:3.1425934 9:-1.8560524 10:-1.7382992 11:-1.7616545 12:1.4651314 13:2.4268486 14:250.58029 15:52.999115 16:38.12675 17:14.655249 18:12.741366 19:19.475793 20:16.588898 21:19.411521 22:16.83285 23:11.10946 24:19.501939 25:17.902375 26:24.488189 
0.3218590271556742 0.451561249485142 0.6295111405307394 0.2909162647439006 0.3783406307683601 0.6909912126086097 0.3404717084735687 0.2298319868652283 1.049484761073218 0.199207607129228 1:207.3028 2:28.449841 3:8.64946 4:-4.2356938 5:-5.2214511 6:-5.0774039 7:-4.384883 8:-0.76537519 9:-5.2554362 10:-2.8034204 11:-5.4274806 12:-2.7349725 13:-1.7682784 14:244.63705 15:57.636534 16:33.566905 17:20.767828 18:20.69286 19:13.640305 20:14.634515 21:21.546372 22:9.5728108 23:18.125997 24:7.8803874 25:9.5364955 26:17.482974 
0.6488972212555646 0.6743495877129103 0.9482373943677725 0.7998049838645717 0.7221942559662947 0.2295521228403107 0.7652212078512405 0.8753398632853281 0.6676001019248315 0 1:198.78942 2:34.889045 3:3.8895189 4:-0.078420626 5:-3.7385751 6:-1.865845 7:3.0203643 8:-0.053379397 9:-1.1520365 10:0.94700718 11:-2.6834401 12:0.56624279 13:-0.89173563 14:250.10164 15:73.343997 16:45.379278 17:27.850095 18:16.4961 19:21.766053 20:33.187344 21:22.478568 22:17.503683 23:16.709033 24:15.431855 25:16.501056 26:16.198739 
0 0 0 0 0.5374650867031582 0 0.171103043936429 0 0 0.01626759435138872 1:216.37589 2:28.034143 3:13.13481 4:0.060896732 5:-7.0895358 6:0.95414029 7:-0.43353356 8:3.2610178 9:-0.46583398 10:-1.1200761 11:-2.3708662 12:0.18682161 13:1.1020773 14:248.27017 15:54.104696 16:31.010469 17:16.13949 18:9.3751327 19:18.834895 20:18.393492 21:21.467235 22:15.622264 23:12.650582 24:18.718365 25:17.832456 26:14.07846 
0.6969388721212197 0.4567016604020382 0.59402250109552 0.4399489674715563 0.6489181358518906 0.4550842196195776 0.4674430650700827 0.5099401329222868 0.5480201274643821 0.03330043421876218 1:200.99041 2:33.192683 3:19.894896 4:-5.495056 5:-5.8196115 6:-4.6931002 7:1.7387137 8:-3.1464498 9:-2.4500305 10:-3.9351856 11:-4.0102162 12:-1.2670166 13:3.3787553 14:250.7902 15:57.094186 16:37.247031 17:12.23182 18:13.494394 19:7.7826336 20:16.719639 21:14.9 22:10.304038 23:8.3825133 24:9.2766539 25:9.8549493 26:12.770447 
0.3778286520268069 0.9202759695738078 0.4474161779903704 1.985150373090862 0.1838276959424354 0.8783774542821655 0.8538097873977947 0.2583116985169822 0.4706898438530046 0.0331761088885076 1:244.08687 2:33.656027 3:6.8645371 4:7.9982239 5:-4.6506544 6:-1.4394309 7:-1.7044533 8:-1.1995298 9:-1.0708605 10:2.5943569 11:0.35317544 12:2.0229261 13:0.46272455 14:283.8727 15:59.457919 16:27.073281 17:36.746943 18:20.012233 19:16.961195 20:11.926703 21:11.889148 22:12.860596 23:19.220085 24:14.022542 25:15.547018 26:16.575266 
0.8031983944573781 1.619478546643651 2.091945409198006 2.825938497355049 0.9157470593831963 1.274828384058991 2.480622494033511 1.158444027921294 1.271551785560689 0.02391520377780544 1:229.63756 2:31.424549 3:7.9606351 4:5.9691729 5:1.1682796 6:-2.0571441 7:-0.28124945 8:1.50815 9:-1.178084 10:2.1788114 11:1.1218649 12:0.62283715 13:-1.1933216 14:273.3259 15:68.375333 16:50.595586 17:38.240346 18:18.726883 19:21.497588 20:20.732194 21:16.125672 22:14.550538 23:17.841376 24:15.162543 25:17.384136 26:14.493907 
0.7847548945226771 0.6690924980698169 1.060154363872388 2.186059665312071 0.7138032008985392 0.5438626881023019 1.718364362594103 1.0250133925189 0.5885257249811953 0.06729696630493238 1:213.93103 2:30.510134 3:8.0343613 4:13.853657 5:4.2923292 6:1.3066041 7:0.10325384 8:0.46958988 9:0.88255348 10:1.7553466 11:-0.73181106 12:-0.47476593 13:-0.48722524 14:299.38392 15:78.134364 16:38.394083 17:44.709756 18:22.320068 19:23.649187 20:16.11837 21:15.134844 22:14.193339 23:15.24586 24:20.556782 25:14.164686 26:11.579643 
0.7728312427313219 1.024122762110644 2.705910851469932 3.376037734864843 0.5188521209267626 1.803963114139979 1.384511646621378 0.9184253211748025 2.001061019376303 0.04125230515884371 1:234.60492 2:22.426836 3:7.2249151 4:13.591788 5:4.11315 6:3.8810935 7:0.32051057 8:4.7040194 9:3.5908466 10:-1.8900081 11:-0.21689843 12:0.596613 13:2.5540168 14:274.93648 15:47.166986 16:35.659426 17:35.400719 18:24.096575 19:26.39047 20:18.717497 21:22.406833 22:16.485947 23:12.900917 24:17.425839 25:12.355449 26:21.054007 
0 0 0.6363523813578295 0.6658418170613958 0.3630610310269202 0 1.252805080133281 0 0.1882217579723921 0 1:241.30575 2:33.009269 3:-1.3196177 4:9.7829385 5:5.3616296 6:1.3336411 7:2.5613743 8:2.1831819 9:-0.78131917 10:-0.45082671 11:-0.75795155 12:-0.78717299 13:-0.97365529 14:282.12354 15:64.75067 16:36.678732 17:29.922208 18:19.911132 19:19.578003 20:19.175773 21:19.570528 22:16.355126 23:15.289696 24:13.327485 25:12.522214 26:14.812492 
0 0 0 0 0 0.6121941115098833 0 0 0.1198684651479124 0 1:252.16556 2:29.731986 3:0.038322095 4:7.8474265 5:3.6689357 6:1.0629219 7:1.3333567 8:1.2308249 9:-0.92390064 10:-0.038145592 11:-2.1624539 12:-1.1735397 13:-0.44092442 14:285.37039 15:51.730537 16:26.642249 17:30.549881 18:20.379344 19:19.319056 20:19.037343 21:16.553811 22:19.728835 23:16.759484 24:10.179808 25:10.878974 26:15.542262 
0.7371719491791738 0.5478520226308722 0.2425954942031107 0.7672094431066657 0.6174894079023863 2.260974227085388 0.2230677802333304 0.5426275439140447 0.9358192619574914 0.05593725048810916 1:253.12724 2:28.194247 3:4.4388536 4:11.023331 5:5.9738531 6:2.7753284 7:4.8432923 8:2.226066 9:-2.0794485 10:-0.65668264 11:-2.6756921 12:-0.47065733 13:-1.9991736 14:284.00406 15:48.581671 16:39.777379 17:31.244696 18:19.399859 19:18.805158 20:22.702867 21:24.647664 22:10.413068 23:13.475248 24:9.9177808 25:8.6768176 26:12.64777 
0.7004623443986013 1.953022848588474 2.125687367080329 1.250213639024426 0.9278526000394697 0.4282570998776862 2.884026378534019 0.8406876162463196 1.787930514004867 0.03053559683706793 1:235.44438 2:37.45399 3:-3.7691029 4:5.5624431 5:1.0636328 6:2.55293 7:0.98928566 8:2.3654213 9:-2.401856 10:1.321828 11:-1.1759152 12:-0.92785412 13:-0.52114723 14:278.99542 15:70.365662 16:23.887433 17:32.27424 18:22.715878 19:23.662778 20:18.170414 21:25.602926 22:19.291761 23:13.75861 24:9.8661771 25:15.095694 26:14.985024 
0.7782835815471575 0.2723156825152662 0.590040159220614 0.4461566312972736 0.3948355771280014 2.253301615340812 2.341764145961767 0.607857066069463 1.768145874315099 0.05399307187943141 1:249.27134 2:28.66704 3:-6.6110751 4:4.0628346 5:0.44184074 6:1.7085939 7:-0.67218593 8:0.71211177 9:-2.420859 10:3.137556 11:-2.437038 12:0.59289004 13:-2.6214209 14:286.79338 15:57.855577 16:20.293743 17:21.719041 18:16.73531 19:20.281434 20:17.865716 21:14.977814 22:13.676227 23:16.067183 24:10.650514 25:13.419223 26:9.8550206 
0.03479889339662538 0.3747196751318207 0 0.03961263052108273 0.8958896819682326 0.03821175784502943 0.6823121785560174 0.09783108882445703 0.4966045002170743 0.007229269120958936 1:245.9381 2:34.704873 3:-0.79162581 4:3.6858369 5:-1.6859136 6:-0.31075492 7:1.2743241 8:0.79871203 9:0.63424401 10:-0.93440554 11:-0.0042112371 12:-0.31324592 13:-0.71044022 14:280.25257 15:62.805388 16:28.809927 17:28.382025 18:14.697284 19:22.607083 20:17.010858 21:17.492331 22:17.713507 23:19.081414 24:19.391943 25:15.730652 26:13.063842 
0 1.154357702407568 1.946299726604344 1.152589783559384 0.4472719676436666 3.425043793758259 0.01537409659051915 0 1.849889320537474 0 1:244.94398 2:28.108713 3:4.0952069 4:8.9796479 5:2.7287479 6:2.5924216 7:5.249389 8:1.9416307 9:0.36896331 10:2.1089291 11:1.0778299 12:1.6920159 13:0.98025845 14:279.98466 15:55.449584 16:27.960474 17:27.239962 18:16.778977 19:17.492984 20:18.414655 21:20.278856 22:16.53748 23:16.064851 24:13.862517 25:16.584536 26:17.094327 
0 0 0.8253736576096934 0.2996408716388276 0.3964184773000672 0 0.4990356029197094 0 0 0 1:239.15742 2:34.717881 3:-4.4474127 4:9.0764774 5:1.0899702 6:0.47244076 7:2.7514917 8:2.2208662 9:-0.96661997 10:1.6650118 11:-0.22347011 12:1.9795144 13:-0.020896137 14:282.50234 15:61.757027 16:25.081319 17:30.766519 18:19.12281 19:15.978758 20:19.308143 21:15.660651 22:15.331784 23:12.799803 24:14.120617 25:20.186529 26:15.070111 
0.4808249050292214 0.758206981535014 0.333753659925484 0.4485119186950538 0.7031078999247982 0.3007772580821829 0.2634003551526194 1.027105043747626 0.5334136596435841 0.01481356637745053 1:183.91154 2:55.156101 3:8.8131804 4:13.785644 5:5.3749073 6:-0.038450604 7:-2.667704 8:-2.9644871 9:-0.45156223 10:3.9769172 11:3.785034 12:-0.48656904 13:-1.5368567 14:258.19993 15:112.72074 16:44.5647 17:38.758009 18:31.51374 19:19.009099 20:19.630148 21:17.308958 22:18.140944 23:20.472942 24:22.523616 25:17.203804 26:15.538893 
0.2422896258159389 0.2683394399000376 0.09719115807052559 0.4299296505987005 0.3975520771574459 0.1590688873531428 0.1208230348408111 0.7972547713177547 0.1044643760276417 0 1:159.03073 2:62.743893 3:11.844098 4:12.144064 5:4.4215644 6:1.3518717 7:0.19279014 8:1.408575 9:2.0935805 10:0.70446482 11:-1.543548 12:-2.5611702 13:-1.4947871 14:257.22629 15:114.29664 16:58.249709 17:38.623222 18:23.559329 19:22.38821 20:18.481295 21:20.733074 22:21.0494 23:18.111317 24:20.995549 25:10.20495 26:12.927128 
0.2620555463136103 1.370970286322662 0.3075395206360028 0.348028019981162 0.5226759700496403 0.1995824894591895 0.4628945094622773 0.8987711821891037 0.4637770665073816 0 1:188.47086 2:54.057159 3:14.810317 4:10.528452 5:3.0234613 6:-0.0099323327 7:0.29541003 8:-3.2445467 9:-0.16278441 10:0.44360409 11:1.177641 12:0.68315029 13:2.3189862 14:251.81948 15:100.18709 16:52.22557 17:41.474329 18:24.083099 19:36.347465 20:21.84241 21:12.697904 22:18.378311 23:21.587174 24:22.551312 25:17.365829 26:14.763742 
0.32680363650267 1.014683652520885 0.06717236253142142 0.5520204051168337 1.569181118139539 0.2129067771844775 0.206553762528016 0.6685719801948952 0.1144663172127107 0 1:167.89018 2:65.299666 3:8.9685776 4:18.211257 5:3.6565491 6:3.6153396 7:1.0423732 8:-1.6984125 9:-0.040578376 10:1.683138 11:-0.48338622 12:-1.8248856 13:-3.2942819 14:236.86222 15:104.25497 16:48.075531 17:45.400432 18:20.815219 19:19.237688 20:18.540444 21:16.253074 22:18.613335 23:21.557507 24:12.801585 25:15.900299 26:10.004634 
1.099001498772622 0.8922616022853762 0.6664166484883143 0.8524999514733811 0.9821903423777349 0.7061311501078078 0.6790034103781708 0.8649391108120403 0.8051484328266756 0.07810129966962097 1:97.168567 2:68.653051 3:16.845657 4:12.112667 5:5.5358465 6:6.6698533 7:2.4883405 8:1.802981 9:2.8678742 10:0.088736302 11:1.4302754 12:0.36806881 13:-1.9662066 14:259.74952 15:109.7741 16:46.083521 17:45.182699 18:26.528569 19:26.585303 20:19.548588 21:23.205581 22:19.393482 23:11.928329 24:19.868888 25:13.653383 26:11.79956 
0.6973526964819481 0.8969337025655795 0.5361513027729412 0.787191450224945 0.728095097449959 0.4546405048258108 0.3681144789685102 1.064935488418697 0.4976375855057443 0.03994852282087785 1:176.69961 2:50.370285 3:19.553718 4:15.239194 5:3.1964424 6:1.6919217 7:-0.15113197 8:-2.1225297 9:1.5559955 10:1.685846 11:2.0214335 12:1.4527912 13:1.9495379 14:241.95245 15:99.543389 16:64.035775 17:52.967826 18:21.944921 19:25.955022 20:21.542537 21:14.078528 22:20.764009 23:18.19993 24:25.042132 25:20.336184 26:16.966642 
0.7220158261664289 0.8147582695821112 0.4355457487646999 0.491717081103608 0.6281133277973684 0.4632641279588263 0.4341799394115813 1.108639119875742 0.4811909090062294 0.02995865407754821 1:149.16872 2:69.073267 3:6.2298878 4:12.370316 5:7.655072 6:6.1880766 7:3.3324103 8:4.0514577 9:0.026932948 10:0.87344123 11:0.4023478 12:-0.34125167 13:-0.24059413 14:258.85774 15:113.82452 16:50.60132 17:37.476714 18:25.787419 19:29.767515 20:19.252043 21:25.270224 22:15.15446 23:13.870907 24:14.38901 25:13.078825 26:14.923551 
0.9229542112459784 0.8772194819542629 0.5526879081756617 0.7042655830743013 0.903820125986032 0.5945976566582085 0.5624661695122483 0.6597880530710634 0.7770146703791615 0.06330159530055357 1:104.81171 2:63.963179 3:22.347251 4:18.928879 5:8.4073898 6:2.584337 7:-0.83275638 8:0.22675268 9:1.7957647 10:2.1863712 11:1.4324462 12:-0.7205753 13:-1.2387192 14:214.4605 15:106.46762 16:55.743956 17:42.716995 18:34.479479 19:21.161503 20:21.844867 21:17.139834 22:21.003678 23:19.348332 24:17.248211 25:11.924372 26:12.129382 
1.026737829201593 0.7805669794626485 0.5988748584329424 0.7658753708629721 0.9367616801402556 0.6331929122713402 0.609706933237316 0.7579983757702123 0.7182973991525949 0.0700327894885686 1:103.77859 2:82.993326 3:12.574821 4:7.4371696 5:10.32743 6:4.7536065 7:3.4971669 8:0.92995947 9:-0.4255401 10:0.50882942 11:-1.2526902 12:0.37295321 13:2.7002589 14:227.71902 15:114.68491 16:40.679321 17:35.787926 18:31.168148 19:18.506587 20:18.239253 21:18.47614 22:13.950598 23:16.502922 24:16.184492 25:12.960335 26:14.114211 
0.06855686703493045 0.1098119828080879 0.3459362487720401 0.4016496686940608 0.3984726759763654 0.03916455065050058 0 1.641671850257458 0 0.2318409979736582 1:166.13408 2:56.130377 3:14.078264 4:15.119448 5:5.404927 6:5.3893142 7:2.7206012 8:1.9046867 9:0.43560423 10:1.9481811 11:0.94359217 12:-0.27063632 13:0.19302806 14:237.64033 15:102.35245 16:46.931256 17:41.893004 18:33.380982 19:25.678051 20:17.563416 21:17.197761 22:15.844358 23:18.922169 24:16.278458 25:12.994654 26:13.854334 
0.7349297162365871 1.045176818955516 0.8533956937182816 0.9131926816657824 0.7483948308417704 0.5101097705491786 0.6520574541784536 0.9008903152168947 0.8249730463662398 0.04826592856383475 1:202.23398 2:57.461809 3:9.114515 4:6.8757807 5:-1.519677 6:4.68772 7:5.3004079 8:-2.0101667 9:1.8380013 10:1.8062441 11:0.097241241 12:1.7093675 13:0.36463792 14:259.30232 15:92.863106 16:55.399265 17:43.199055 18:19.034885 19:29.991725 20:28.165403 21:15.267392 22:17.202616 23:16.876665 24:17.046124 25:21.00411 26:13.822413 
0.9817977995359266 0.7749611499885384 0.4327639159183348 0.5531161033311409 1.063419113066744 0.5020532545354508 0.4458456298914176 0.6320322270472133 0.6185845054451333 0.04364147025044774 1:122.72827 2:64.226994 3:11.774052 4:0.47235529 5:-1.4086499 6:1.749381 7:-1.8516709 8:-1.8502569 9:-5.0137223 10:-3.9506512 11:-3.1573274 12:-2.8183576 13:-0.96048159 14:219.49172 15:95.736702 16:52.928179 17:26.597934 18:17.071471 19:20.214601 20:16.750523 21:13.86623 22:16.835862 23:15.144651 24:12.336887 25:12.656105 26:13.546508 
0.6236643571822414 1.147356430600002 0.8815599596443815 1.213505528278743 0.5460793266791634 0.4398162172872988 0.9122475277149164 1.0184868434957 1.264966470362424 0.04279793191399025 1:192.94737 2:59.401895 3:9.4374516 4:18.735327 5:1.4917698 6:4.9114406 7:1.3907468 8:1.3186161 9:-1.3907228 10:0.44297832 11:0.094544774 12:-2.1865181 13:-1.3442789 14:271.59802 15:102.70644 16:42.327972 17:44.584918 18:21.003879 19:27.122338 20:18.341888 21:19.421801 22:17.876848 23:15.559414 24:15.788178 25:11.095502 26:12.287094 
-3.406457209594604 2.972093965902812 7.700156750507873 6.740061108391665 2.098843264183604 3.088369252204249 4.567688906488718 6.23323844049705 5.677376454293085 0.1469424273622035 1:212.97167 2:28.81599 3:8.467559 4:7.5466791 5:3.2966939 6:5.6740416 7:0.16909831 8:2.7723697 9:-1.6393091 10:0.21556492 11:-1.6081692 12:-1.6106128 13:0.50677164 14:268.37267 15:62.647068 16:39.336482 17:31.312421 18:22.590569 19:27.101045 20:19.467079 21:20.622299 22:20.031548 23:14.665035 24:11.702583 25:14.0751 26:13.436657 
-1.572053760567794 1.60549285441315 1.561461369322532 1.974999460980511 1.252216220570546 0.6915911238908514 1.610465097104611 1.828698357398804 2.066208767116092 0.1708534830228367 1:176.77149 2:46.374909 3:1.4464674 4:2.379124 5:1.4617864 6:5.9111769 7:-3.2380312 8:0.79899711 9:-2.6070651 10:0.86863974 11:-3.0568047 12:-0.61610582 13:-0.23693482 14:266.38553 15:78.847206 16:41.59482 17:32.52273 18:24.676155 19:26.755531 20:17.081949 21:22.112991 22:12.706395 23:14.91893 24:9.0909464 25:10.519334 26:10.793757 
-0.04203233370351001 0.1202165147795166 0.02914762507658797 0.03602038861338742 0 0.01406018257550783 0.002515918912034724 0.01047475492967043 0 0.003382027472104574 1:144.11336 2:44.049913 3:-12.974852 4:1.5585055 5:0.47842186 6:2.9516313 7:-4.2098815 8:0.32830847 9:0.61540728 10:4.1364013 11:0.097591364 12:-0.77782327 13:1.1634557 14:210.18867 15:69.011954 16:8.9807224 17:23.737708 18:18.898548 19:18.43019 20:12.13213 21:21.03001 22:20.108368 23:20.953252 24:21.88384 25:20.26861 26:22.203823 
-0.5439095995390016 0.4401353716881299 0.3946978032907237 0.5175224473353638 0.5503399391308496 0.4097223490138762 0.4162508036120716 0.5137117591286597 0.4829132681612199 0.05555345495835118 1:125.38362 2:47.255629 3:-11.525972 4:-1.9121444 5:0.79892949 6:2.4584653 7:-6.8370801 8:-2.1576061 9:-2.9282143 10:2.9465699 11:1.4457765 12:-0.4920929 13:-3.5826962 14:164.36207 15:74.459628 16:11.548794 17:21.953479 18:23.112822 19:23.186058 20:10.337021 21:13.095186 22:14.22428 23:24.000645 24:26.173958 25:20.134076 26:19.383307 
-0.3282574112112582 0.2787434384080505 0.3358436499423044 0.3137657243434804 0.8947892992534071 0.2588475137847795 0.304603122129584 0.3125336829668048 0.3669016567359363 0.03587030956567339 1:157.45216 2:46.30411 3:-9.3820047 4:2.2400018 5:1.4339083 6:3.0557448 7:-5.9938097 8:-1.3468736 9:-0.39758548 10:5.4562298 11:1.634016 12:1.3050778 13:-0.41329919 14:197.96946 15:69.989826 16:15.998131 17:22.519753 18:18.789636 19:21.107459 20:7.7350954 21:15.071553 22:13.305124 23:22.85898 24:19.526673 25:17.342166 26:17.298994 
-0.567023202695327 0.6888032359619924 0.520050684773412 0.5424738810872728 0.9009237796213029 0.438977913432706 0.4904833088776799 0.6714396271396609 0.5032519997947604 0.05841769627850968 1:128.91252 2:37.689907 3:-7.9692342 4:3.7896163 5:2.6769395 6:4.0525794 7:-6.6567523 8:3.0375502 9:2.2650342 10:1.4918873 11:5.3769603 12:0.27046305 13:-2.5095343 14:186.40161 15:65.690177 16:28.535817 17:22.881729 18:26.452856 19:23.417578 20:9.9466554 21:18.557084 22:19.50934 23:23.350825 24:28.961042 25:18.091636 26:20.815402 
-0.506255469469535 0.5630984717652922 0.4939417922122983 0.481177498810279 0.3923996911293442 0.3804928609114016 0.3861547079257995 0.4834697145538466 0.4379452420323677 0.05186094271303972 1:154.02852 2:34.731921 3:-12.692746 4:0.28877915 5:-3.8602321 6:-0.31071635 7:-4.5230769 8:-0.58304713 9:-6.146324 10:-3.2060518 11:0.23535772 12:-1.2591688 13:-1.6936791 14:189.73876 15:65.039738 16:6.4642841 17:25.571754 18:17.258569 19:21.393006 20:16.377559 21:21.019507 22:17.066535 23:19.021503 24:21.946932 25:21.507363 26:16.778227 
-0 0 0.08398212966914377 0 0.03028602181096043 0 0.1008443874641701 0 0 0 1:145.0727 2:46.754268 3:-4.8596852 4:5.4134718 5:-6.8857489 6:-2.0725373 7:-2.3928496 8:0.73501871 9:-2.1899537 10:-0.051394559 11:0.20318052 12:0.80901352 13:1.2526382 14:204.10887 15:76.324907 16:15.328858 17:23.238337 18:8.8304876 19:11.834087 20:14.220261 21:19.299439 22:15.999768 23:17.044973 24:17.944354 25:19.86017 26:17.526073 
-0.1069882315753948 0.1223859257846109 0.3106644128034275 0.09771563953130227 0.176695824290105 0.09858044088953176 0.08350086945172738 0.1393372306016101 0.08518654193917982 0.008910354008319715 1:135.10215 2:47.898203 3:-2.2889342 4:6.3745997 5:-6.4021427 6:-2.364423 7:-2.4926221 8:1.8866939 9:-1.9034208 10:1.8881536 11:2.5328587 12:0.65640985 13:-1.1895636 14:206.14343 15:73.367959 16:19.126983 17:23.933161 18:9.6887212 19:12.930715 20:13.085587 21:23.738778 22:19.556105 23:17.461824 24:25.623281 25:15.735552 26:26.014137 
-0.1596993121649397 0.3330000260017844 0.2766820476045523 0.1538869616851567 0.5284446688496862 0.1544057061919233 0.2467307571644852 0.2316995873351149 0.1863295731920517 0.02238946850221547 1:136.11334 2:46.731013 3:-3.4430077 4:5.453196 5:-4.6649051 6:-0.094770918 7:-1.7403383 8:1.9678705 9:-0.62605135 10:-0.48581994 11:-0.75940102 12:1.0066257 13:2.170027 14:208.54894 15:75.453816 16:23.252633 17:21.508399 18:13.481713 19:18.256984 20:25.265679 21:23.117029 22:19.660938 23:18.658646 24:12.878137 25:22.077019 26:22.323584 
-0 0.07207910897984744 0.05029724040307921 0 0 0 0 0 0 0 1:134.33986 2:44.005604 3:-5.03728 4:5.144167 5:-6.9595414 6:-2.0008684 7:-0.46905787 8:3.0589529 9:-1.7175136 10:1.5052866 11:1.8833791 12:0.4995833 13:-0.014723495 14:199.43701 15:74.996949 16:17.704877 17:22.617406 18:12.160717 19:12.40435 20:17.950023 21:26.180912 22:17.230439 23:18.417566 24:22.774258 25:16.832921 26:22.625719 
-0.4631596860697744 0.4045163842790126 0.35537834038137 0.4410140032205908 0.569382372386823 0.3530275214515991 0.3722139542776945 0.4442919511661251 0.4104214523709755 0.0472120436536407 1:107.86943 2:51.524728 3:7.7265585 4:5.3100789 5:-6.4464859 6:1.7975086 7:-2.6339853 8:1.5731981 9:-1.9912952 10:-0.33022669 11:0.21000598 12:0.23034883 13:-0.0081116699 14:162.98342 15:72.463918 16:27.97221 17:21.667958 18:8.0027125 19:19.282035 20:11.525975 21:19.754304 22:23.803183 23:29.554795 24:15.729846 25:13.661784 26:18.675712 
-0.1361627114400379 0.2637375932213884 0.2023169958186696 0.1474559400676334 0.4561713058498948 0.1210182507746293 0.09363785921270544 0.1655158047568773 0.119878835671565 0.01349506246325511 1:122.50087 2:41.261962 3:-8.174287 4:0.93685461 5:-5.0275939 6:-1.1763378 7:-3.0515242 8:3.5517793 9:1.9677931 10:2.7339503 11:1.474997 12:-0.015095239 13:0.26593343 14:194.31771 15:75.398936 16:22.091268 17:20.387139 18:14.347394 19:19.679274 20:17.6295 21:29.894219 22:30.014344 23:22.711123 24:21.944839 25:25.202359 26:21.595214 
-0.2924516784854499 0.2571449101106792 0.2258517155649854 0.2786233255995942 0.2941708739221158 0.2177599697392811 0.2199089916965763 0.2788725254844626 0.2586189642680941 0.03000420566975247 1:100.49792 2:65.695855 3:-3.2073697 4:-0.49184969 5:-4.0863784 6:-6.1313573 7:-3.0304633 8:1.4857781 9:3.864964 10:0.96699598 11:-2.6782772 12:0.29159864 13:2.6012459 14:152.11007 15:87.342404 16:21.097525 17:17.783125 18:12.618437 19:10.807 20:14.750277 21:24.007113 22:24.074042 23:18.345141 24:19.561831 25:16.106098 26:20.481587 
-0.3246913398327843 0.2547962693849989 0.2369049936572351 0.3082396805717552 0.4699457310104486 0.2461299075441925 0.2495208082314906 0.3046207811789942 0.2900123949898582 0.03357206533282276 1:110.56373 2:51.305133 3:-7.9690164 4:0.4847332 5:-7.3512819 6:-3.6516902 7:-4.5742907 8:1.1710802 9:1.5660221 10:3.9756271 11:3.3878561 12:-0.40335252 13:-0.38757962 14:178.10905 15:91.424205 16:22.859177 17:19.029147 18:11.712704 19:13.713041 20:18.856832 21:25.820448 22:26.748213 23:27.326521 24:31.526525 25:20.560397 26:19.586067 
-0.575741448068291 0.4306297303908659 0.3896177554887442 0.5485233760012234 0.7090298562909637 0.4776758669344754 0.4037553550145491 0.5884441736645327 0.4894787043928948 0.05727268346516854 1:118.22938 2:46.276962 3:-7.1216112 4:2.8133071 5:-4.9517827 6:-2.5016463 7:-2.3801718 8:2.6266186 9:0.826947 10:-0.037288679 11:-1.5760275 12:-1.3739762 13:0.29536134 14:223.13574 15:88.57261 16:26.48242 17:21.416979 18:14.267925 19:17.851036 20:24.270244 21:27.140819 22:25.653752 23:16.001961 24:15.084423 25:21.941648 26:33.705984 
-0.2059820312055076 0.1760379347717037 0.15676094345168 0.1925243979732893 0.3996238393047952 0.1722672345268358 0.1452629470383137 0.2056591341764305 0.1718788668808656 0.02324589076740341 1:120.89147 2:50.502375 3:-10.722088 4:0.9042633 5:-9.2095267 6:-6.1565498 7:-5.0045765 8:-0.33547761 9:-0.98531421 10:0.57662319 11:1.815524 12:1.070459 13:0.23536015 14:220.36636 15:79.201284 16:17.345894 17:19.448886 18:10.936137 19:11.813034 20:9.9237861 21:14.453887 22:16.66824 23:23.860981 24:23.278949 25:15.240277 26:19.170049 
-0.6616000106653315 0.5757604590996181 0.5074547154411081 0.6301833557570128 0.6420825858492953 0.4951742420843463 0.5075384458879088 0.6323673538636493 0.5867861296300967 0.06804384649140295 1:71.420971 2:36.988916 3:-7.8282298 4:-1.7901822 5:-3.5336997 6:3.1955103 7:3.5981289 8:4.2240012 9:2.2532384 10:1.8505334 11:3.6158711 12:2.7146482 13:3.1808268 14:142.80238 15:75.191704 16:14.665115 17:17.023742 18:14.441033 19:25.407004 20:24.493391 21:25.853642 22:24.825244 23:22.173461 24:28.167027 25:30.103942 26:29.918498 
-0.2530522009016784 0.2168224602358935 0.1937624638639376 0.2408806700795487 0.2457700652505632 0.1953577513582737 0.1933467189885716 0.2410235913886742 0.2235321347592598 0.02556229314053667 1:61.079006 2:48.120029 3:9.805608 4:-0.25430471 5:-3.5751639 6:-1.2926473 7:-1.3602055 8:-2.9159382 9:-5.26189 10:-3.1058928 11:0.69136682 12:1.7400377 13:1.2349897 14:127.30107 15:74.240724 16:31.510797 17:14.382565 18:12.159985 19:13.958992 20:14.225024 21:16.081012 22:8.8029416 23:19.684895 24:19.738574 25:20.828701 26:23.093785 
-0.1685179662321803 0.09654588166425437 0.1552429888460571 0.1575010152853769 0 0.1069966529364099 0.1494913862385821 0.1470442634472816 0.1375907448566323 0.01774301577368451 1:123.79985 2:49.000496 3:-16.061301 4:-5.7861383 5:-5.2568071 6:-2.3396838 7:-2.606465 8:0.053395857 9:1.0020425 10:2.7807002 11:0.73553873 12:-1.2277388 13:-0.37076562 14:210.43494 15:78.823734 16:11.609387 17:17.468913 18:12.129117 19:14.937674 20:14.426959 21:24.033741 22:17.568204 23:18.246022 24:16.155383 25:15.632221 26:17.312961 
-0.4384076993542876 0.3658871980041589 0.3355674435036786 0.4187752766317395 0.5874136303785977 0.3444283002345225 0.3335460128262172 0.4152643839936658 0.390189378466035 0.04515849751271804 1:91.27527 2:54.664583 3:-3.7906354 4:1.2511735 5:-4.123105 6:-3.4305117 7:0.75525299 8:4.7427974 9:3.6982439 10:1.038045 11:0.59972754 12:-1.3944725 13:-1.1355676 14:193.73315 15:86.703357 16:20.196038 17:22.467796 18:15.772892 19:21.850703 20:26.854292 21:20.742551 22:24.718682 23:24.4963 24:28.417785 25:19.42194 26:24.271655 
-0.7027772496249121 0.5916547654693147 0.5389202087628473 0.6686351309986786 0.7054165879481639 0.5300719737047284 0.5385224781545612 0.6711797334434764 0.6225654070558639 0.07242703124863419 1:60.144658 2:41.006442 3:3.6301734 4:1.8832325 5:-1.8535937 6:0.83176833 7:2.3321701 8:1.410954 9:-1.6599221 10:-0.87340713 11:2.8066412 12:3.9185316 13:2.0695565 14:116.4763 15:77.614759 16:29.095374 17:16.815692 18:13.24317 19:27.563754 20:28.400165 21:19.213435 22:20.057965 23:25.127648 24:29.371708 25:23.937421 26:28.68101 
-0 0 0 0 0.05618102708028867 0 0 0 0 0 1:134.69897 2:56.109378 3:-8.6862804 4:3.6384291 5:-5.3693273 6:-2.6510309 7:-2.6459087 8:1.8016597 9:-1.1051399 10:-0.95580682 11:0.67375027 12:0.5205987 13:-0.25187331 14:207.06781 15:89.352898 16:23.367703 17:21.836466 18:13.594805 19:13.800745 20:14.387185 21:19.18223 22:19.264279 23:22.450607 24:23.514919 25:21.263012 26:23.671317 
-0.2543750274905218 0.1973435325778848 0.1734960733268208 0.2360665343930652 0.3946612169415072 0.1827305869106465 0.3568139250301584 0.2258608501273593 0.2265716223545866 0.02514604981579996 1:136.21383 2:49.547345 3:-12.251945 4:-0.78715925 5:-9.4441507 6:-4.8062447 7:-3.292115 8:-0.52463885 9:-3.5486274 10:-0.24906289 11:2.013838 12:1.2202783 13:1.6707441 14:233.50853 15:87.688442 16:10.981458 17:14.092296 18:8.6217085 19:17.374919 20:14.011495 21:15.537156 22:12.40228 23:19.520711 24:20.261028 25:19.086649 26:17.879102 
-0.1491817755543777 0.2479159445739779 0.208633325687246 0.1420771027742445 1.176430520464671 0.1337708840448452 0.3135857390235592 0.1698402723526895 0.3431310821525824 0.02305980400726059 1:141.54654 2:55.578501 3:-9.3358654 4:3.3946735 5:-4.7210038 6:-1.6631726 7:-3.0081113 8:-0.034078483 9:1.267924 10:2.0336435 11:-0.80367082 12:-0.85521982 13:0.57182093 14:208.52743 15:84.346342 16:27.533802 17:23.123834 18:13.044863 19:20.469552 20:12.138887 21:11.682572 22:17.404403 23:14.778588 24:17.952862 25:14.394669 26:16.149506 
-0.5621243966781417 0.4837364404300274 0.4307206818990876 0.5348335092724902 0.6524212887583454 0.5952895336991615 0.4305184781487399 0.5367657901254099 0.4977610562961567 0.05828925628355158 1:89.818867 2:57.313626 3:7.0032093 4:7.339516 5:-2.7341879 6:-2.0781039 7:-1.7160791 8:-0.50490583 9:-4.0191171 10:-4.5035285 11:-0.14295732 12:3.1844634 13:4.0658828 14:140.21755 15:80.488319 16:37.316351 17:25.271277 18:14.70975 19:11.718252 20:11.825815 21:14.486242 22:12.13132 23:9.2677082 24:24.765177 25:23.872686 26:23.070426 
-0.2189348979467698 0.2472574074193271 0.1590295143524801 0.2126494799636735 0.2369717118813083 0.1668192729144229 0.1814546104795089 0.2147934435572564 0.1962303752668186 0.0161141143490181 1:168.20247 2:57.300851 3:-10.699822 4:2.6113979 5:-6.1213896 6:-0.22988629 7:-3.6035893 8:-1.0310349 9:-0.51916225 10:0.87735001 11:0.7977584 12:0.21815158 13:-0.45610686 14:208.86928 15:81.22347 16:7.1913981 17:18.72102 18:11.618129 19:21.767692 20:15.899205 21:14.829452 22:16.012783 23:18.17225 24:18.471478 25:15.360359 26:16.807215 
-0.4378562710385085 0.3554449346344365 0.3186202471512219 0.4133757871466061 0.3760486261770725 0.3258384973964071 0.278707750452188 0.4155304762708477 0.3779748782018861 0.04827556515182786 1:163.71693 2:60.750421 3:-11.549981 4:4.1854049 5:-5.9557108 6:-1.075159 7:-4.4961634 8:-2.122181 9:-0.69798625 10:2.6003611 11:1.198491 12:0.40487539 13:-0.087768595 14:204.31924 15:90.289893 16:5.1606251 17:18.788429 18:8.7496868 19:13.948811 20:10.481808 21:14.911293 22:21.349459 23:18.919259 24:18.526567 25:20.987328 26:12.778639 
-0.09599669686472884 0.05160606489412847 0.08886141224888895 0.111872946940152 0.2809281429534954 0.08852785493720702 0.03628847426842657 0.1076452395629331 0.08048567763670045 0.002216718579591061 1:123.99335 2:50.350682 3:-17.933624 4:-3.7486964 5:-6.2072341 6:-2.9523182 7:-4.7357391 8:-1.102912 9:-1.2309928 10:-0.66743113 11:0.94720612 12:0.71128649 13:-0.051398957 14:230.50028 15:85.782027 16:23.664238 17:21.578413 18:14.550147 19:16.80019 20:12.452775 21:16.047043 22:22.149088 23:17.802197 24:21.436358 25:21.087694 26:18.064993 
-0.2007878003809014 0.1625029973097942 0.1514274552702803 0.1918062774979268 0.2306491126606552 0.1542117473648156 0.1577970463691081 0.1889009762879457 0.1781699565175403 0.02045597719858072 1:107.83343 2:68.51712 3:0.07225786 4:-2.77265 5:-4.8288629 6:-3.386797 7:-3.0183754 8:-0.063738992 9:-2.3012584 10:-1.8007255 11:0.86878497 12:2.2637539 13:1.071249 14:165.10452 15:87.678147 16:32.857281 17:15.634831 18:12.187916 19:14.706426 20:13.737997 21:16.032938 22:14.537016 23:13.003668 24:18.285051 25:23.503389 26:14.436613 
-0.4732303885915098 0.5580718273677543 0.3623763095719279 0.4536514768250985 0.9045362489980271 0.3614407017121036 0.461227555005947 0.4620486542554477 0.4644408508531598 0.04769748238298366 1:164.11019 2:54.19514 3:-12.683421 4:1.3164127 5:-4.1484174 6:-1.8232052 7:-5.7467165 8:-0.80574553 9:-0.30232625 10:0.9191629 11:-0.025445776 12:-0.68299973 13:0.34120861 14:219.34661 15:94.874604 16:24.517463 17:22.31572 18:22.207563 19:11.96105 20:10.453705 21:15.952521 22:16.508356 23:21.934313 24:30.177141 25:17.362881 26:21.608544 
-0.2687222166968445 0.2375795434674179 0.1604791174379133 0.2681530821151045 0.2605450115401715 0.2131677987452859 0.2152290365483085 0.2542667057355045 0.2333874701591354 0.02674472204136882 1:131.41021 2:41.050587 3:-10.295613 4:2.6423433 5:-5.9742211 6:-0.77021833 7:-1.6356174 8:0.72612333 9:-0.19364355 10:1.8220771 11:2.015418 12:-0.72125723 13:-1.4355913 14:216.79947 15:82.746675 16:21.563076 17:19.299819 18:12.973195 19:15.740143 20:20.925366 21:25.136955 22:23.085873 23:23.839286 24:30.552427 25:34.90673 26:22.415881 
-0.5175145937818608 0.4347507293542576 0.4453405646735865 0.4922147711830401 0.6941587514188065 0.3895599935327387 0.4469584102274746 0.5540074415996962 0.4592667910315256 0.05282519792737422 1:121.40699 2:49.976708 3:-8.2610167 4:0.97618885 5:-11.307669 6:-6.028655 7:-4.5362404 8:-2.7722139 9:-6.5806427 10:-6.5438088 11:-3.0512469 12:-1.7390465 13:-2.4178679 14:182.61436 15:84.746755 16:33.576764 17:17.33499 18:15.174691 19:9.5969217 20:10.882826 21:10.578245 22:12.142857 23:13.27409 24:11.172958 25:14.000771 26:14.01712 
-0.5843117105136306 0.5503585543692179 0.423405426183694 0.5255779870298376 1.104384466938366 0.4469096163688296 0.432753690793834 0.5264791239906013 0.499920071200333 0.05697164854118954 1:93.17093 2:64.648035 3:8.7571074 4:4.04221 5:-1.788759 6:-2.4579973 7:-1.2479342 8:-0.57386942 9:-3.5815284 10:-5.0262695 11:-2.8841068 12:-1.5136429 13:0.16245978 14:195.858 15:96.031134 16:42.286792 17:22.427826 18:17.161997 19:15.415297 20:18.219434 21:14.961748 22:11.050608 23:11.356173 24:21.194548 25:19.655354 26:16.894815 
-0.6052205312588057 0.5030156000306764 0.464363604156011 0.5762231469343362 0.6075647215896237 0.4550703848011804 0.4638409402313833 0.5780587905642453 0.5361621895322497 0.06263028174985927 1:56.404541 2:55.800722 3:17.07223 4:-0.80863035 5:-3.2602387 6:-1.743806 7:-0.66758438 8:-2.191707 9:-5.377374 10:-6.3084386 11:-4.1279301 12:-1.4781755 13:-0.38532643 14:109.3052 15:80.945952 16:32.775774 17:15.467201 18:7.7312819 19:11.84442 20:11.231018 21:7.4434153 22:5.0440798 23:6.3906375 24:7.9159677 25:7.7428192 26:10.000549 
-0.4196828645255044 0.3510884864998749 0.3223066309514859 0.3998025331501775 0.4333833925893176 0.3463847406203673 0.321589696311127 0.4005036569654653 0.3723754350400296 0.0434616911416303 1:71.880118 2:43.679417 3:0.88462484 4:1.309138 5:-3.7548152 6:-2.7801003 7:-2.4108826 8:-1.2349927 9:-4.3712212 10:-2.0333156 11:0.41902248 12:-0.94841376 13:-1.2558266 14:157.81196 15:73.725357 16:23.787474 17:19.428796 18:10.568373 19:8.9732176 20:13.593586 21:24.799718 22:28.189145 23:23.975339 24:29.726762 25:21.817004 26:17.475378 
-0.3721872376124126 0.3672970553338431 0.3932126518318394 0.3486808261786983 0.6985450346004825 0.3044386670957698 0.3073268618888202 0.3518730750796079 0.3171537643745074 0.03703655161414471 1:132.58803 2:46.634995 3:-4.5506215 4:7.0461897 5:-6.0225415 6:-1.8020498 7:-5.4432498 8:-2.9882601 9:-6.5703528 10:-3.6696899 11:0.063549662 12:2.7033971 13:1.287409 14:210.66178 15:81.385121 16:22.557962 17:25.24744 18:13.234745 19:12.264105 20:12.434806 21:19.093225 22:17.561541 23:14.928891 24:29.547169 25:35.606405 26:25.764459 
-1.142305628350144 0.8450769783548323 0.5517671443709464 0.7042000625388661 1.480987659780479 0.6912768698435844 0.5567198346448257 0.8144472149350402 0.7054760647028441 0.07368285514907938 1:119.40494 2:60.467515 3:0.7223356 4:7.9242271 5:-2.2772547 6:-3.4578586 7:-2.7996163 8:-0.4547685 9:-4.3714669 10:-3.216216 11:-0.39120105 12:-1.2591101 13:-0.30072359 14:219.54301 15:107.72523 16:40.914382 17:28.004267 18:18.255143 19:13.717102 20:15.009171 21:15.964801 22:12.40996 23:13.978743 24:24.538187 25:18.654035 26:15.098842 
-0.3172083204916308 0.263099546025775 0.2438192071372287 0.30251851960731 0.4409638240765301 0.2446325085461296 0.243328934016362 0.3033788216091527 0.2813623508565278 0.03250088748267597 1:78.078044 2:46.57746 3:1.3524316 4:-2.7070596 5:-5.3549194 6:-7.3329675 7:-7.8301401 8:-3.7512362 9:-4.2516446 10:-3.9277241 11:-2.2222604 12:0.99573565 13:2.2828909 14:156.1118 15:83.455936 16:29.149803 17:14.022762 18:10.537249 19:11.121126 20:8.1420118 21:11.660487 22:9.3588876 23:18.774658 24:16.212934 25:23.933597 26:29.032814 
-0.247198583761954 0.2097137123268904 0.2878724636174252 0.2622106591213694 0.3782732737871074 0.1782571981297442 0.448544459762961 0.2549126060145395 0.2235642983361719 0.02484306940971327 1:140.11046 2:38.247917 3:-13.55942 4:3.6071821 5:-9.1859257 6:-6.0789792 7:-6.4069599 8:-0.70298422 9:-4.5224586 10:-4.1857445 11:-0.049013756 12:0.98903872 13:2.248415 14:224.95379 15:86.002634 16:17.29472 17:28.338291 18:19.276963 19:17.186513 20:13.728923 21:18.782975 22:13.016943 23:13.363086 24:15.617087 25:24.158446 26:18.499904 
-0.361166284930218 0.3058907263755132 0.2647148394193319 0.348068008869052 0.3883413866264945 0.2733652112050126 0.2096542742085218 0.3485614276042453 0.3197246135881789 0.03690321504483902 1:140.73547 2:49.03889 3:-13.242818 4:3.1496036 5:-7.3546384 6:-6.9247329 7:-8.2132369 8:-3.0007091 9:-4.6446739 10:-3.0334837 11:-1.10743 12:-0.91476506 13:-1.5086252 14:222.68445 15:101.96559 16:10.187508 17:23.977237 18:11.280327 19:10.286023 20:8.3837758 21:12.533931 22:20.705189 23:17.168849 24:16.26673 25:17.927085 26:12.192328 
-0.586122499904839 0.4903500557404983 0.4494838371466855 0.5579378360160332 0.5699040896421836 0.4407183367717495 0.4482871236940772 0.5603048582625122 0.5196832271432366 0.06052301099417287 1:77.890401 2:32.993153 3:-6.5696254 4:-1.1753704 5:-0.3977021 6:-0.93761706 7:-2.9156368 8:5.0885154 9:2.1457852 10:-3.4050984 11:2.2741199 12:0.84351249 13:-0.96451471 14:195.0392 15:73.674391 16:17.866186 17:23.324994 18:21.393 19:19.40213 20:24.391097 21:29.383831 22:28.251888 23:21.98345 24:24.059155 25:18.278085 26:17.270394 
-0.4073871840675336 0.3453193472027727 0.3358440592382683 0.3879312798793552 0.507006392264063 0.3053014831102305 0.3124867451474832 0.3894848201271995 0.3606500967456814 0.04214559365006421 1:103.7033 2:42.045804 3:-12.547179 4:-2.3183896 5:-8.6035913 6:-6.5794786 7:-4.6419296 8:-1.878299 9:-5.0568056 10:-4.4726121 11:-0.60880882 12:5.6644975 13:7.6866437 14:188.17156 15:78.804886 16:13.784427 17:19.679353 18:8.8297441 19:15.161828 20:9.9439848 21:16.272458 22:9.8563609 23:12.357958 24:16.588281 25:28.985566 26:28.982058 
-0.4270297796929528 0.3653765077919304 0.3292759206651386 0.4057440742236092 0.5239845309931094 0.3213174704731893 0.3259405767176453 0.4123314916406116 0.3799320461053573 0.04339989905792874 1:97.788082 2:40.336492 3:-14.140797 4:-1.5302792 5:-9.1666056 6:-7.8923588 7:-5.0581686 8:-3.663907 9:-5.0425806 10:-1.4012814 11:3.0510795 12:3.002308 13:4.0583841 14:195.45045 15:71.2178 16:9.9113375 17:16.265882 18:11.594975 19:15.351052 20:15.484814 21:16.187633 22:9.963603 23:17.984345 24:18.573458 25:21.502987 26:20.390494 
-0.6458492460688173 0.5664938248005701 0.4499582208136945 0.609801709734106 0.6154051236688793 0.4780105400301632 0.4777229442624245 0.6105478982753507 0.4528661147650104 0.05847164204534666 1:200.04991 2:55.381165 3:-27.071373 4:-0.5435395 5:-7.3815202 6:-2.6247741 7:-5.9878252 8:-0.78805059 9:-1.6012717 10:-2.9987784 11:-3.7083325 12:-1.8515741 13:-2.4768126 14:249.50344 15:85.566992 16:0 17:20.634337 18:9.0478166 19:14.317662 20:9.8295846 21:15.465987 22:13.11398 23:10.386779 24:10.625811 25:15.772182 26:12.232839 
-0.750624072303898 0.6654658619559273 0.573839610822733 0.71229412419809 1.02377363114692 0.5629082230824812 0.5814324672121716 0.7145625055005784 0.6654677135888091 0.07548344044182612 1:151.53137 2:75.66812 3:-10.636219 4:-7.1863182 5:-8.5943041 6:-9.2784333 7:-7.3185883 8:-4.9955352 9:-3.8115109 10:-1.1128883 11:-0.96944885 12:1.3830579 13:-0.37076737 14:228.27174 15:104.01119 16:28.835299 17:12.558491 18:8.2968935 19:8.3522616 20:11.639001 21:13.313779 22:16.487829 23:24.725417 24:13.673602 25:19.65182 26:15.34906 
-0.5791333092578738 0.4940162195278801 0.444442289380701 0.5509324830857851 0.5870097739806902 0.4312349808454933 0.4438346934497177 0.5532125929904242 0.5128959510469501 0.05980319361229636 1:96.841903 2:50.980987 3:-10.310364 4:-4.6558597 5:-7.9569145 6:-8.4073749 7:-10.25697 8:-2.6226711 9:-0.95497146 10:0.57518545 11:1.9393357 12:-1.4095971 13:-1.7090197 14:146.03354 15:78.145475 16:22.776582 17:23.086781 18:12.461073 19:13.214704 20:7.9424168 21:22.495414 22:25.801305 23:33.48233 24:29.861535 25:33.947059 26:18.901585 
-0.7669348096728841 0.6740640702383834 0.5862472479053272 0.7279731208469755 0.7981726170974173 0.5758286951566693 0.6083004650642407 0.7356815017585165 0.6937653096974874 0.07721724587865009 1:188.8049 2:62.072553 3:-15.486713 4:-1.5691604 5:-7.2383548 6:-4.0258816 7:-5.0406181 8:-3.1239508 9:-4.0072269 10:-1.5220653 11:-1.806137 12:1.4448376 13:-0.52173336 14:238.99029 15:96.913256 16:3.9267713 17:14.641545 18:18.168862 19:32.412806 20:17.935596 21:21.278497 22:13.156901 23:28.05213 24:19.482781 25:21.72137 26:18.524979 
-0.4287391944203612 0.4614892523174159 0.3377740325024077 0.3988822220904008 0.5835363564282569 0.3999517656275222 0.3590105541530434 0.4168049826284547 0.7785097027288952 0.1216514009564318 1:218.35694 2:38.944479 3:-8.2577047 4:3.2876904 5:-1.4306515 6:-1.8661103 7:-2.460549 8:-0.35119794 9:-1.8497953 10:1.5979229 11:-0.14714414 12:0.33900352 13:0.27249727 14:248.9143 15:73.371987 16:6.1247321 17:18.09355 18:15.857645 19:12.438469 20:11.571102 21:14.4172 22:8.3118261 23:14.345493 24:13.547935 25:13.594585 26:12.216509 
-0.5253641410018257 0.577173263905982 0.4030943581835271 0.4995805086627388 0.5151483790178309 0.390718749525501 0.4023881293209848 0.5012966055988651 0.465057672222773 0.05408334080999055 1:77.539301 2:50.090802 3:-5.2545753 4:-1.7268267 5:-3.6322203 6:-4.891283 7:-5.0355528 8:-6.150616 9:-2.064978 10:-0.83232421 11:-1.8938689 12:-0.79020241 13:0.55030782 14:135.14305 15:69.655483 16:16.543279 17:16.754859 18:18.057087 19:9.5464953 20:14.593544 21:6.9357663 22:11.828788 23:13.390796 24:13.979833 25:12.097488 26:13.198992 
-0.9001688888676106 0.9190609804660751 0.9206977242734672 0.7211998626578521 1.160622474986253 0.4988326115584164 0.7866780354661478 0.7141936770768479 1.04024384747695 0.06848976653607489 1:207.90654 2:54.845691 3:-9.1644708 4:5.1124921 5:-2.7486309 6:-0.38133385 7:-4.7460582 8:3.3629141 9:-0.76595635 10:-1.3057194 11:-0.20671279 12:-1.8885165 13:-1.823422 14:266.56464 15:101.61767 16:14.453674 17:29.986956 18:19.076775 19:14.953324 20:14.34665 21:20.7435 22:16.466375 23:14.121411 24:15.0014 25:13.154485 26:12.766018 
-1.017944962647938 1.429670160739618 1.468732775291262 0.8277005836938141 1.389814065938599 0.6428983312169537 1.038788244443744 0.9634284596413097 1.732539195281902 0.123832464929707 1:208.46986 2:35.250754 3:-6.2929274 4:3.9587494 5:-1.5702694 6:-0.55818659 7:-3.6121793 8:-0.14357495 9:0.58091314 10:2.0967562 11:-0.043284955 12:-0.87557006 13:-0.36116485 14:263.48736 15:65.455141 16:13.463643 17:20.608031 18:11.562178 19:17.719102 20:12.053491 21:11.128195 22:17.668416 23:15.103597 24:19.640131 25:14.648859 26:16.330767 
-0.5187642207917902 0.4701048447884237 0.3983272314378564 0.494031271819133 0.520844560307165 0.3911938630200025 0.3979263664790554 0.4956780172575294 0.4597437686071532 0.05297793897622959 1:66.72684 2:49.531987 3:7.4288292 4:5.652884 5:-1.8855433 6:-4.0121834 7:-1.0870744 8:0.32091819 9:-0.58638417 10:1.186235 11:2.6497155 12:1.6252528 13:-0.98989169 14:113.96588 15:67.090875 16:25.587953 17:24.162146 18:10.732399 19:11.828499 20:10.470419 21:13.153622 22:16.587388 23:18.384101 24:16.661482 25:11.589832 26:9.9540372 
-1.414225656031669 0.9623569719172187 0.7630558391517918 0.7284176786503054 1.223192735506407 0.7807823555244984 0.6837715472228973 1.099553405543738 1.151740252863062 0.4932909279596044 1:146.8504 2:50.587697 3:6.700958 4:10.371822 5:4.7893628 6:3.6948331 7:-1.1239042 8:1.1635198 9:-0.54801759 10:0.93487271 11:-0.65962462 12:0.74805177 13:1.2115544 14:252.52204 15:79.316371 16:39.72265 17:31.414252 18:23.470784 19:16.657248 20:12.795837 21:14.304418 22:11.619907 23:12.193051 24:17.632825 25:18.684389 26:18.682561 
-0.7263389050151497 0.6515276931447896 0.9881233486466758 0.6225512852761961 1.420774472374819 0.5545015746039437 0.5438069225942305 0.752704597500683 0.8118198050345876 0.07593689769243196 1:162.37597 2:29.963422 3:-3.4964095 4:3.2949149 5:-0.57117113 6:0.83930237 7:-2.6659319 8:-2.3565484 9:-2.8188024 10:1.7808505 11:0.07767449 12:1.763767 13:0.70264067 14:248.90077 15:68.995106 16:22.983808 17:23.776381 18:15.951157 19:16.423988 20:10.776387 21:19.889594 22:21.041605 23:20.100603 24:19.371205 25:21.361377 26:16.966705 
-0.2323563432569273 0.4335027328366129 0.2104595189759736 0.1985656682091258 0.3096624880548935 0.1604254817224288 0.1748852801609435 0.2179755187484854 0.5575851366467333 0.02014319268727589 1:210.74887 2:50.264712 3:-13.64559 4:6.0319474 5:-0.66695544 6:2.9890729 7:-2.9403799 8:1.7659895 9:1.1314111 10:1.45799 11:-0.60184306 12:-0.35182711 13:-0.91167667 14:264.34929 15:93.543494 16:7.7458249 17:22.611663 18:15.582944 19:15.786453 20:9.7177639 21:13.673068 22:13.993225 23:15.22 24:9.4457126 25:13.007181 26:10.671375 
-0.840008576327917 0.733551526160526 0.6511350794266217 0.8027650924558539 0.847873184271358 0.625991501834768 0.6446766437213987 0.8209790610091073 0.7471022840841266 0.08553128862114263 1:211.30527 2:41.390623 3:-13.457301 4:11.723507 5:-8.5050227 6:-2.7783621 7:6.5834892 8:0.88666337 9:1.9800086 10:7.6393392 11:-1.6459139 12:-3.2226603 13:0.032640667 14:253.05691 15:71.03968 16:12.911405 17:38.44886 18:11.396622 19:37.409935 20:37.232835 21:27.34296 22:43.286657 23:27.673239 24:17.277256 25:14.750032 26:18.650428 
-0.4520187386012209 0.3635902674089391 0.3467994021340678 0.430550505531214 0.4510433662408402 0.3374161834438314 0.3471271078987112 0.4316044071179502 0.4008542003926425 0.04670089072287821 1:64.421036 2:48.792886 3:-2.6541772 4:-7.3739926 5:-3.7906371 6:-6.3762595 7:-9.2352542 8:-7.5798044 9:-3.3502754 10:-1.3113709 11:0.66378884 12:2.0355023 13:2.579732 14:123.96791 15:78.052123 16:20.62881 17:13.97607 18:17.344706 19:9.1847945 20:8.4128183 21:15.948503 22:12.250422 23:18.317902 24:17.926327 25:20.505633 26:22.47273 
-0.757778021183675 0.990185382846319 0.6004741666957564 0.6610045760513094 0.8131792011299926 0.5806752372226683 0.5803814232399724 0.6722718335146306 1.22254454756927 0.06895560214544688 1:229.85142 2:45.527852 3:-10.322757 4:11.929791 5:-8.0863774 6:3.1081132 7:-0.47577453 8:-1.7889015 9:2.667521 10:2.026029 11:-3.4272293 12:0.61443818 13:-1.0245272 14:259.80635 15:72.522874 16:7.3168332 17:31.473186 18:11.408454 19:18.290124 20:15.656216 21:12.831143 22:17.143915 23:18.465668 24:9.950702 25:12.274449 26:10.904339 
-0.5113068422390021 0.4289371698803338 0.3904037913670939 0.4887611989911525 0.7112909576107271 0.3943692318650081 0.3985556633968907 0.5283383005395925 0.4531498286686109 0.0527267567452589 1:98.054206 2:38.10234 3:-8.7468724 4:-2.1011923 5:-2.4076431 6:0.52486953 7:-1.1226285 8:-6.1166769 9:-5.9238422 10:0.92512988 11:0.72472447 12:-2.135711 13:-2.3094924 14:189.45302 15:83.211362 16:28.265566 17:25.063464 18:20.726715 19:20.309823 20:15.602011 21:12.470394 22:16.165853 23:25.969834 24:21.877161 25:21.007207 26:32.941393 
-0.6912782933503374 0.5780200418758614 0.5300006475224228 0.6589047248924188 0.7249316112013603 0.521374235625977 0.5331624365337946 0.6594813852066043 0.613252281942953 0.0710188908629579 1:119.47118 2:64.108194 3:-10.637659 4:1.3603086 5:1.4409867 6:4.122857 7:-4.6851925 8:0.050966989 9:2.7196525 10:-1.3412896 11:-1.6499352 12:-0.67588572 13:0.94705232 14:158.69045 15:93.022258 16:32.844632 17:25.178968 18:18.7283 19:23.226281 20:18.299401 21:22.278044 22:30.121403 23:15.446315 24:23.796226 25:20.654692 26:30.326224 
-0.8107627862735104 0.8572423186947942 0.5309865849397025 0.4664661999693905 1.878183275908504 0.3339138070207717 0.7362186959968086 0.5930241145101924 0.6692103374020502 0.045157844651819 1:175.67801 2:46.026982 3:-10.299307 4:6.1096278 5:-5.2886006 6:-1.7917301 7:-3.9389999 8:-0.22538395 9:-1.1168859 10:0.3406546 11:-1.0548121 12:-0.26305337 13:-0.97089886 14:243.22569 15:88.808337 16:26.361932 17:21.49771 18:8.8156474 19:16.477615 20:11.480145 21:12.44746 22:22.844115 23:19.016708 24:20.230676 25:19.663425 26:14.513989 
-0.5215863096252059 0.6322278912331398 0.6870357682810302 0.4575372822320766 0.7709489642091172 0.3911219839992426 0.4354136129304132 0.4501583317518187 1.062083827112846 0.1729548104875762 1:183.42593 2:41.083907 3:-10.19692 4:4.0101363 5:-5.0047329 6:-1.9796806 7:-3.0653721 8:-0.34161124 9:-2.0154016 10:-0.054150078 11:-0.8689716 12:0.29851255 13:0.053603988 14:233.57305 15:76.970846 16:15.416411 17:21.119892 18:9.7195489 19:13.373937 20:12.520092 21:12.768722 22:20.45871 23:10.775672 24:12.34078 25:13.892403 26:17.957833 
-0.5065049122245292 0.6016504597942776 0.2300326556648264 0.3201946108088851 2.089307859296262 0.2790419068966979 0.3213661227312173 0.6275922783954826 0.3578387817203531 0.1468044031746584 1:143.86882 2:56.04083 3:-7.7373908 4:7.3124751 5:0.46931903 6:0.0086612588 7:-3.2683747 8:-0.12479006 9:-0.9067775 10:-0.11937917 11:-0.16461927 12:-1.1321199 13:-3.2900814 14:237.94464 15:85.337214 16:30.793806 17:26.867371 18:24.636574 19:16.001218 20:10.675641 21:18.182881 22:21.239455 23:15.728747 24:17.203256 25:15.92906 26:12.219891 
-0.6116441085935943 0.4594497643651665 0.4000797000276617 0.53117116985249 0.9555755312123871 0.4237484967317083 0.3900055626697873 0.5322033321565112 0.551205855625077 0 1:125.494 2:51.019524 3:-3.1053173 4:5.7676629 5:0.5766653 6:-0.15183181 7:-0.31385502 8:-0.15760531 9:-1.3444133 10:-2.164166 11:-0.90070039 12:-0.46248899 13:-1.5025619 14:249.08733 15:78.903909 16:35.980865 17:27.139204 18:18.153314 19:14.985768 20:13.787484 21:13.896661 22:14.940392 23:18.8286 24:11.127818 25:15.591466 26:13.167991 
-0.7277825651930396 0.6086511556899337 0.5583980262334178 0.6931973475895391 0.7276731824646829 0.5793359421736602 0.5579494301659439 0.6952251851266593 0.6450331250561129 0.07517540136885181 1:70.854212 2:70.830982 3:20.598718 4:-4.0467298 5:-7.2103638 6:-6.3693401 7:-5.1415307 8:-3.0619612 9:-1.1103755 10:0.704625 11:0.69469929 12:-1.2372851 13:-1.7025552 14:131.88597 15:93.324163 16:37.637136 17:15.686859 18:3.9777288 19:8.9155732 20:8.9058572 21:8.4650907 22:14.960762 23:16.59265 24:17.261378 25:13.996862 26:12.457057 
-0.5856783043633422 0.490393964049173 0.4497089300919534 0.5571154616744411 0.591584468644064 0.5208911327861344 0.4489278180010371 0.5591453699774291 0.5187850426915301 0.05994698436965659 1:58.653362 2:53.243003 3:13.047801 4:-2.1730588 5:-5.3391847 6:-5.122498 7:-3.4942864 8:-0.68174456 9:1.442761 10:1.3344379 11:-0.38028934 12:-0.79803057 13:-0.072244876 14:160.00675 15:92.062203 16:35.296426 17:16.472628 18:12.307728 19:9.7620483 20:17.267565 21:24.343203 22:18.579846 23:14.823424 24:12.129562 25:15.006247 26:14.370261 
-0.1358980355374354 0.1155099199890182 0.1038943525558378 0.1284107973762735 0.1372422467074969 0.1166087757210455 0.1032524658729439 0.1289356703805158 0.1193990162035403 0.01320868158070037 1:83.127068 2:65.928114 3:3.9140206 4:-10.671318 5:-9.5292907 6:-7.2438414 7:-7.2693712 8:-5.2364794 9:-4.1862256 10:-2.5962664 11:-2.3804319 12:-4.1895528 13:-3.8408108 14:171.26967 15:90.485155 16:30.362505 17:14.576775 18:9.3032677 19:11.850099 20:11.932507 21:19.376045 22:15.385386 23:16.387952 24:16.178762 25:16.005396 26:17.06315 
-0.4433982270728045 0.3624294725184444 0.3453840125032219 0.4279064879311217 0.4057466144949221 0.3317119203700444 0.3419249458535699 0.4288534023957013 0.3963283005230597 0.04699933773385544 1:83.940132 2:68.121669 3:6.7594827 4:-7.8335375 5:-8.8687301 6:-8.3638551 7:-6.7657668 8:-3.3721206 9:-0.74475034 10:0.94106993 11:0.56706315 12:-2.2318981 13:-3.1095356 14:187.18308 15:96.711478 16:31.971882 17:13.074945 18:12.019309 19:13.510221 20:14.518667 21:17.774425 22:18.105499 23:18.899586 24:19.283187 25:13.806745 26:17.122492 
-0.6843506600597211 0.5780321045483175 0.5212410019117487 0.6469479865521918 0.8170422987252112 0.5150238538576348 0.5204558112627207 0.6500148652183075 0.6009065323969536 0.06992017874846591 1:82.614556 2:58.62197 3:7.7018285 4:-3.1979327 5:-7.6608833 6:-6.2555464 7:-4.8614033 8:-1.48407 9:-0.78460935 10:-0.35869097 11:-0.95259818 12:-1.9522233 13:-1.725932 14:215.79393 15:90.482946 16:36.281212 17:15.877008 18:10.007628 19:13.040256 20:18.853653 21:16.268647 22:11.090575 23:16.481257 24:14.369399 25:12.309284 26:11.805202 
-0.01025244859500679 0 0.00384226767962742 0.005398170687214123 0 0.001041391944130109 0.363073141374348 0.003838905685420453 0 0 1:162.74282 2:45.29577 3:-18.708064 4:0.10732601 5:-6.9505047 6:-0.40916169 7:-6.5433433 8:-0.99683305 9:-0.95733656 10:1.0618019 11:1.4320848 12:0.46375514 13:0.30657419 14:215.00395 15:75.026612 16:8.3855388 17:18.685861 18:10.890646 19:15.788346 20:16.270406 21:16.356542 22:13.385367 23:20.644013 24:20.844182 25:19.702161 26:18.87256 
-0.1508335164474039 0.1119540437214032 0.167531045490027 0.1432731541000563 0.1383549371912482 0.1117590457273477 0.1119289249246347 0.1334574364299591 0.1305478239761335 0.01581503998340001 1:129.04752 2:50.902888 3:-16.332471 4:1.7340506 5:-5.2828841 6:0.52359839 7:-4.0304922 8:-0.20687493 9:-1.4119837 10:3.1977913 11:3.584212 12:2.2562167 13:2.5365106 14:173.65075 15:74.517209 16:15.198688 17:16.616692 18:14.879092 19:16.187523 20:12.150134 21:16.653825 22:16.192547 23:19.34266 24:17.836712 25:20.281018 26:18.890746 
-0 0 0 0 0.7232102034374288 0 0 0 0 0 1:121.53302 2:49.523077 3:-7.8978244 4:2.9456327 5:-6.208889 6:-0.26774994 7:-2.3277035 8:0.17597951 9:-0.96195992 10:0.008930901 11:1.3801571 12:0.20920709 13:-0.94664615 14:213.51998 15:80.000487 16:23.141935 17:19.930713 18:11.394547 19:17.387795 20:18.960416 21:19.899328 22:13.557413 23:17.915186 24:17.139695 25:16.700521 26:14.332668 
-0 0 0 0 0 0 0.002080735919667406 0 0 0 1:144.12196 2:48.846309 3:-9.1761468 4:3.8095141 5:-8.2955261 6:-2.128037 7:-3.0876121 8:-0.0084498924 9:-3.7329967 10:-0.29690799 11:2.1385769 12:-0.042231177 13:-2.1142888 14:207.31196 15:74.361048 16:16.008645 17:20.600007 18:11.527541 19:11.962714 20:14.410676 21:14.942716 22:17.52681 23:18.441689 24:29.794079 25:26.653218 26:18.005346 
-0.2481825093620672 0.1888522550071556 0.180619406478285 0.2360515545437758 0.3373587378137113 0.1905354271327541 0.224026930252064 0.263936322605053 0.2206065116343733 0.0259261562617965 1:102.06754 2:49.40963 3:-0.40021396 4:8.0216836 5:-4.2136292 6:-1.0801017 7:2.2686774 8:3.084013 9:-0.5634174 10:1.1670627 11:-0.022166295 12:-3.1653176 13:-0.73821984 14:176.73658 15:78.362116 16:23.839729 17:23.366113 18:14.554219 19:19.352138 20:18.340992 21:28.724833 22:25.230088 23:15.910242 24:14.060367 25:18.605905 26:20.329633 
-0.4223748971406145 0.2884198710470204 0.2762310003441488 0.403296011788875 0.3794767124133374 0.3196919282493607 0.2939924790955091 0.3940484561971909 0.3605215566113769 0.04259093545577767 1:130.69557 2:54.257462 3:-15.174551 4:-2.3603457 5:-9.014436 6:-3.5274525 7:-4.981049 8:1.4554124 9:3.1647294 10:3.8937478 11:2.713004 12:-1.5715291 13:-2.200958 14:198.88467 15:86.083098 16:19.097924 17:18.706866 18:17.552056 19:14.660408 20:21.084708 21:22.727626 22:32.991721 23:26.754858 24:26.683445 25:16.711998 26:14.931777 
-0.2961581079919018 0.2543447471718637 0.2275217677330992 0.2823029852207263 0.611091988687949 0.2381891032321141 0.2263934522082661 0.2825123127293812 0.2620803620568224 0.03003112305548626 1:88.538082 2:48.886273 3:-3.3269791 4:3.43696 5:-5.973704 6:-2.6602795 7:0.056015192 8:1.8938261 9:0.22843278 10:2.3651706 11:4.6175875 12:0.73133125 13:-1.7110502 14:147.53972 15:79.001219 16:26.687216 17:24.991529 18:11.530897 19:13.093202 20:15.282526 21:23.27345 22:26.769616 23:28.362447 24:34.670647 25:30.403185 26:28.843147 
-0.03649522628379153 0.04450125648081065 0 0.0528692304351804 0.3930269860476894 0.04600220871175599 0.02666847750653711 0.03259923605239404 0.006820510492192081 0 1:156.14307 2:53.529419 3:-9.757115 4:6.0960778 5:-7.2965695 6:-1.1871855 7:-4.5771608 8:0.37821787 9:-0.7024966 10:0.93189571 11:1.5655751 12:0.25824734 13:-1.0335625 14:225.88631 15:83.878696 16:12.007179 17:23.597478 18:8.6820962 19:12.887798 20:12.446539 21:19.57283 22:21.330003 23:27.469554 24:20.796271 25:15.716122 26:14.161282 
-0.4297155246914929 0.3601867784186776 0.3294406027998714 0.4092738889821179 0.4123605693987107 0.3124672026218595 0.3295119079750276 0.410097240709841 0.380941635585078 0.0444252449298822 1:65.315658 2:50.304243 3:2.7917785 4:-7.2110267 5:-11.273872 6:-10.691462 7:-5.8837695 8:-3.2304006 9:-2.3663293 10:-2.8318908 11:-4.5839511 12:-3.7953725 13:-1.4314254 14:172.993 15:84.105227 16:27.660738 17:16.973521 18:7.710567 19:8.6347273 20:16.764726 21:17.114486 22:14.228799 23:20.776695 24:13.025224 25:18.732352 26:20.370763 
-0.7072228919044456 0.5917320807921601 0.5423528055409608 0.6730650620654176 0.7087515231512453 0.5337312362379728 0.5419414499865292 0.6749317609263753 0.6263050877284507 0.07249231733209152 1:45.73889 2:47.773483 3:16.693358 4:-2.5481317 5:-8.203545 6:-7.3261518 7:-4.8247831 8:-3.2970727 9:-1.9799876 10:-1.3242222 11:-2.2875248 12:-3.2624513 13:-3.2281587 14:86.974941 15:73.328218 16:28.931281 17:14.292582 18:5.4345169 19:5.5046319 20:8.6340915 21:14.703756 22:10.399577 23:18.549561 24:12.914656 25:19.488147 26:16.783931 
-0.410763970310244 0.3390742532334088 0.3151459975119263 0.3911839535125333 0.4246215206089544 0.3144180929605848 0.3150012098040109 0.3921627292184712 0.3641940025233152 0.04238354706314185 1:74.644796 2:58.370991 3:-0.015081093 4:-8.6126285 5:-7.8258135 6:-8.1258096 7:-3.701466 8:-3.7371219 9:-6.0374798 10:-5.4521225 11:-3.5995589 12:-1.7189153 13:-1.8934179 14:155.1993 15:88.017162 16:28.104178 17:11.525797 18:21.926087 19:19.02862 20:19.769562 21:18.994391 22:14.195992 23:16.31728 24:18.012537 25:25.24656 26:16.138819 
-0.6613407661531796 0.552098723199375 0.5070531228089799 0.6294972412724795 0.6624774091088386 0.498642123809493 0.5064970658468495 0.6311308930525136 0.5859963131856052 0.06796247661536634 1:38.548134 2:37.507872 3:14.370972 4:5.1461951 5:-0.54752049 6:-1.993557 7:0.21754742 8:2.8071981 9:3.9770249 10:3.546714 11:3.4915828 12:2.2619192 13:1.0433936 14:105.32964 15:78.018358 16:31.544057 17:16.701692 18:12.528776 19:9.8760971 20:8.5205431 21:14.168576 22:11.795276 23:10.898425 24:11.581161 25:10.679309 26:7.7615462 
-0.06481897393540557 0.07088728249888299 0.04983514110917256 0.06219663148174254 0.1132618597094728 0.0449620161597743 0.04935659934664342 0.05911198546110922 0.05812671737258628 0.006895179053743235 1:98.527661 2:55.417787 3:-7.0612631 4:3.5941145 5:-2.552932 6:-2.5274632 7:-2.2456017 8:-2.6236215 9:-2.268699 10:-1.3260751 11:-0.68124361 12:0.14074202 13:2.0679504 14:159.05778 15:78.165009 16:27.653534 17:25.983701 18:20.386273 19:20.139737 20:15.704884 21:15.106399 22:14.703533 23:17.714781 24:13.461961 25:19.142554 26:20.841419 
-0.700174466234095 0.5785654536634232 0.5646299822228532 0.6666887586371203 0.6831756899909451 0.5287496503791445 0.5820237533831323 0.6694368264091044 0.6197219612843501 0.07189446119868653 1:147.67799 2:41.656975 3:-23.243902 4:-6.6355562 5:-15.612173 6:-8.3627294 7:-11.857876 8:-4.9669029 9:-3.7641946 10:-3.4350935 11:-2.6553139 12:1.9486717 13:0.23954389 14:195.31876 15:78.854405 16:0 17:10.492655 18:5.6648311 19:11.187372 20:9.2978888 21:11.736554 22:13.006475 23:21.236355 24:19.117407 25:21.90849 26:14.341556 
-0.6951487119646269 0.5848134242527602 0.5303753575218362 0.6618654312370816 0.7036929583519054 0.5243839086201365 0.5315513529423675 0.6624091292521818 0.6158836918398338 0.07162806885055061 1:121.38591 2:71.209814 3:-12.545957 4:-5.7102697 5:-8.1626802 6:-8.2791833 7:-7.5543725 8:-4.8412633 9:-3.9993308 10:-1.1529876 11:1.4958683 12:0.70119413 13:-0.71434547 14:173.51006 15:90.353212 16:22.627104 17:9.9975679 18:13.506028 19:7.3720983 20:8.4060905 21:7.5944514 22:9.820204 23:23.806557 24:26.841621 25:31.760575 26:22.334711 
-0.4111839432361061 0.3432934506898426 0.3043880267848473 0.3917872838644777 0.400625012667515 0.3106750534779799 0.3059926603017952 0.384481001827879 0.3640846880853266 0.0421099219947744 1:103.22233 2:59.00539 3:-11.238657 4:-3.4384872 5:-7.6529283 6:-8.2242348 7:-6.145541 8:-4.2405596 9:-2.7575081 10:-2.62292 11:-1.005903 12:-0.078924726 13:-0.019140574 14:180.62126 15:77.161074 16:18.695052 17:14.022212 18:11.045521 19:7.3674886 20:7.0102339 21:9.2026761 22:10.184829 23:12.639648 24:10.792665 25:12.458538 26:14.914898 
-0.3021199398707967 0.2202521653028988 0.2265478962852207 0.3017978220122434 0.2643609877187516 0.2405465712127584 0.3381453102173049 0.2779994309387686 0.2488461656095424 0.02092766106303805 1:148.42119 2:48.208947 3:-16.112017 4:-1.2107306 5:-6.8447196 6:-2.4367366 7:-5.1107226 8:-2.8967901 9:-1.2149818 10:-0.96537485 11:-1.8455414 12:-1.7440991 13:-2.2863847 14:228.55221 15:83.928588 16:13.345031 17:14.720537 18:9.4266307 19:13.183845 20:7.6714737 21:11.067631 22:22.4798 23:13.124773 24:11.084395 25:15.437584 26:8.1368997 
-0.432046897813695 0.3604165816074665 0.3317752801976254 0.4112982003823732 0.4158275858445233 0.3192871923200119 0.3307798369999257 0.4134968999879912 0.383006440059639 0.04460166070210193 1:98.916617 2:64.790681 3:-4.7425807 4:-2.9471578 5:-7.2206954 6:-8.1935457 7:-6.0397794 8:-4.0182643 9:-1.1944272 10:-1.6389735 11:-0.48006566 12:0.51631695 13:-0.57266672 14:152.25333 15:82.236635 16:27.506227 17:13.014304 18:7.6673539 19:3.1733991 20:8.0036332 21:10.088196 22:14.158815 23:13.534834 24:13.634474 25:14.882551 26:12.129975 
-0.8366300610805583 0.701302898963127 0.6415769526999547 0.7962115782993933 0.8386895094091714 0.6309927976862175 0.6410716669312457 0.7986385653095484 0.7410796590017653 0.08574335206419642 1:127.30824 2:-6.7395784 3:-20.347891 4:8.1010111 5:3.7544989 6:16.832275 7:18.116012 8:8.6203896 9:-6.7877258 10:-4.4240397 11:4.6230364 12:11.116126 13:1.8090992 14:196.5042 15:51.75644 16:10.789921 17:26.784146 18:22.647617 19:37.033237 20:42.456096 21:32.651731 22:21.793315 23:26.961205 24:39.618725 25:30.366297 26:34.650408 
-0.8275974331016855 0.7019835400842372 0.6346434070685409 0.7882581262941634 0.8264955621689511 0.6242608971444934 0.6345384552283375 0.7897279875983196 0.733257047986448 0.08521972475888302 1:126.07918 2:15.128085 3:-14.487257 4:-1.3541181 5:-9.317909 6:1.7815051 7:-0.20616517 8:7.8951626 9:5.8905075 10:3.2687768 11:0.36707959 12:3.8429882 13:3.202008 14:168.96867 15:50.137965 16:9.4338962 17:21.256902 18:13.302085 19:19.74789 20:21.522036 21:37.602133 22:32.1307 23:29.233595 24:24.850591 25:28.574405 26:22.379603 
-0.6484287457500031 0.6043851155238243 0.5193612530983378 0.62092411542179 0.7011191771290737 0.5554478115470873 0.4992501315749738 0.6425837260651173 0.5850670106771361 0.06768089602287686 1:157.37543 2:21.940807 3:-5.2059913 4:9.1567889 5:-0.58105522 6:6.681963 7:2.6466532 8:-1.3505166 9:-5.193877 10:-0.82520182 11:-3.0430682 12:-0.60530364 13:-2.3422399 14:218.7085 15:56.42469 16:14.829844 17:35.713659 18:17.524708 19:28.893242 20:25.06747 21:15.662941 22:23.514607 23:28.067579 24:28.746176 25:21.271317 26:19.169325 
-0.8206268591811727 0.7158632186462672 0.6297079625531691 0.7878658997744676 0.8479226559659786 0.6306292744103493 0.6291267386614081 0.7952864339258798 0.7263133496196899 0.08443689151560228 1:137.76988 2:31.511791 3:-2.2883308 4:16.219841 5:1.0531405 6:-7.491616 7:-8.3787577 8:12.65145 9:-6.4167041 10:-3.4581976 11:3.7564766 12:1.5001247 13:-1.5385802 14:205.57444 15:72.948464 16:32.610779 17:44.19767 18:24.300907 19:13.906819 20:26.602273 21:41.186792 22:27.091221 23:32.24302 24:35.917086 25:26.990002 26:23.394521 
-0.4679784447440535 0.3874851372223356 0.3664339559864922 0.4504258560370711 0.5118467242096162 0.365471246095797 0.3248514881576907 0.4645582192925133 0.4699766582722074 0.04598721057042218 1:168.95008 2:39.427545 3:-17.08481 4:5.7664056 5:3.2049896 6:-1.1138232 7:-5.7096099 8:-0.54171685 9:1.9096592 10:-1.6421983 11:-3.2552583 12:-3.1207616 13:-2.5503312 14:219.30017 15:67.898852 16:12.975996 17:27.435933 18:20.22359 19:20.493264 20:12.334253 21:16.967604 22:24.511443 23:24.083808 24:29.336287 25:22.567273 26:21.660538 
-0.4881283615981592 0.469739287859504 0.374712540933046 0.4646748478775364 0.5410930727956633 0.3719057436401785 0.3703300599571312 0.4657845913303656 0.4318454366062998 0.05024851608831261 1:92.642357 2:38.454422 3:-0.31412737 4:8.5565017 5:-0.49518605 6:3.104967 7:3.0329163 8:4.6671999 9:1.7985912 10:2.0927513 11:4.6152455 12:4.4219351 13:0.020947005 14:160.68639 15:67.677289 16:24.995911 17:25.729875 18:20.18217 19:15.395984 20:19.420724 21:17.59654 22:18.753845 23:24.563102 24:23.644286 25:19.570613 26:19.239028 
-0.6862996636741912 0.5752206279900498 0.5261555672474527 0.6536418590803569 0.6842142748974162 0.517795175352858 0.5261666240852234 0.6549926754878557 0.608146311910165 0.07035023877142073 1:81.733316 2:22.555077 3:-3.8056252 4:7.1203089 5:-6.4358949 6:-0.48709502 7:4.8548506 8:6.9541732 9:4.1211413 10:2.2566078 11:1.96742 12:4.0612808 13:2.5255075 14:193.82201 15:76.070987 16:19.821245 17:25.986037 18:15.490717 19:21.182572 20:29.172368 21:30.868647 22:23.19287 23:26.146724 24:26.928059 25:34.594316 26:28.68362 
-0.5567420864902882 0.5423067987435274 0.506718854791625 0.6399390453938503 0.9700284745853422 0.562359590304868 0.4782536280202653 0.6625982550637293 0.6199045823344438 0.06500841811178416 1:170.10342 2:29.399983 3:-9.9362406 4:8.3346408 5:-4.1809929 6:1.1876362 7:1.0546387 8:3.0878252 9:0.18348564 10:1.5795168 11:1.5978623 12:3.7837229 13:1.3261783 14:226.24197 15:60.916885 16:19.37736 17:26.034302 18:16.662485 19:18.957224 20:31.926629 21:21.498492 22:22.419887 23:24.8774 24:21.207595 25:23.488563 26:19.224951 
